148 64
376 0.22942464 0.01106452 0.06526199 0.24530718 0.10922403 -0.24344698 -0.2033559 0.083886325 -0.45688716 -0.06845431 -0.0026218286 -0.23030353 -0.055149704 -0.062279124 -0.012250288 0.24998823 0.020094797 0.09979928 0.37632856 0.100820355 0.37096184 0.046566796 0.02569266 -0.2670626 0.15756044 -0.16146205 -0.099682406 -0.11942828 0.16211505 0.078086965 0.1600605 -0.2985433 0.10894702 0.04129907 -0.24270692 -0.010967936 0.1768562 -0.01926126 -0.041535042 0.049646463 0.1774324 0.14799337 -0.03227992 -0.08360348 -0.087933384 0.110089816 -0.074463636 -0.0716492 0.04419 -0.0057674483 0.14488333 -0.10018454 0.22903053 -0.054664925 0.11661998 0.15037568 0.26013598 0.010481246 -0.1757797 -0.034780096 0.06362199 -0.10495304 -0.026342591 0.01992703
475 0.20386258 -0.089392744 0.03527211 0.06426707 0.07916709 -0.13079941 -0.17712137 0.08841907 -0.4418961 -0.20916307 -0.23974904 -0.2914042 0.024507293 -0.087477155 0.00412464 0.29876903 0.018237058 0.26621544 0.3541177 0.110931896 0.35051736 0.076468244 0.06867366 -0.36958814 0.012117374 -0.049140833 -0.012584146 -0.09350595 0.025517823 0.038559224 0.31564912 -0.20015053 -0.055459086 0.024135593 -0.16146503 0.01770576 0.1192637 -0.11720252 -0.12025934 0.10478975 0.21990317 0.08209867 -0.062400937 -0.09359411 -0.13411364 -0.045019697 0.083765015 0.043313198 0.10215942 0.06445473 0.040959235 -0.07809558 0.26607716 -0.011314118 0.06839768 0.20040803 0.22476071 0.019184347 -0.16842969 0.029227603 -0.04608429 -0.058951937 0.064872794 0.15585339
412 0.1036001 -0.0026896435 0.13769643 0.09130869 0.037682608 -0.20185769 -0.09685265 -0.06733972 -0.17616941 -0.10124416 -0.022426235 -0.17048615 -0.020746771 -0.14938301 0.0765736 0.3442236 -0.061464548 -0.015891291 0.3541462 0.09009998 0.29192027 0.18555719 0.029058859 -0.039130487 -0.076033846 0.27514324 -0.22844815 -0.0024417737 0.0027602266 0.30468464 -0.0253471 -0.065976284 -0.2859989 -0.05145837 -0.030414155 0.052727103 0.18306898 0.04468774 -0.19503659 0.041946236 0.12798125 -0.03550169 -0.15540078 -0.07603659 -0.14757988 -0.09626603 -0.02057654 0.098502845 0.110417195 -0.063716374 0.21532513 -0.12712203 0.27403742 0.0027604627 0.38277897 0.13937557 0.1730763 0.22548787 -0.29691747 0.17736125 -0.053096157 -0.053243514 0.041161053 0.11782967
373 0.2648132 -0.18755597 0.28502017 0.25934467 0.1825528 -0.32508644 -0.12343293 0.045902025 -0.32580337 -0.2420328 0.049288835 -0.19460596 -0.07670177 -0.046270825 0.13313752 0.20186655 0.078368716 0.26307344 0.28098327 -0.004867556 0.16634193 0.0565792 0.050564546 -0.22512823 -0.011751296 0.10413963 -0.08947591 -0.03874202 0.14023234 -0.05471276 0.10938234 -0.32825372 -0.026518838 -0.008177856 -0.059145913 -0.1417848 -0.042149514 0.04270138 -0.06939828 0.046023283 0.11435261 0.07304928 -0.07793878 -0.1150137 -0.11507294 -0.04562861 0.00078376057 -0.13837187 0.10534407 0.10994482 0.18414417 -0.10285687 0.12865733 -0.08092214 0.08633766 0.11157764 0.29786596 0.01788983 -0.39112577 0.014009754 0.14210796 -0.06902765 -0.2565399 -0.08607824
428 0.022519464 -0.09464422 -0.090348534 0.3924108 0.1859795 -0.36376163 0.0016640797 -0.17382073 -0.40186486 -0.21837197 0.18921997 -0.2609795 -0.18836154 0.040337596 -0.11929366 0.19653824 -0.07477838 -0.0023368963 0.17626354 0.22793712 0.19678694 0.07887846 0.15500057 -0.3069313 0.13149153 -0.037304036 -0.212753 -0.10020692 -0.09970483 0.033267885 -0.034471747 -0.05812919 -0.10015875 0.14049365 -0.038581584 0.03773514 0.06701682 0.1142093 -0.4120933 0.054996878 0.14659528 0.15792406 -0.19728027 0.18778704 0.09607652 -0.13988411 0.0061375396 -0.21423542 0.22116739 -0.22026058 0.2893186 -0.116925955 0.04369319 -0.08920766 0.16998653 0.0859149 0.13826874 0.020848429 -0.17578138 0.085795164 0.06066235 0.16712262 -0.25911608 0.12885477
483 0.23020782 -0.1186786 0.15373218 0.2378746 0.18788917 -0.04030206 -0.018438695 -0.023605943 -0.23097284 -0.20780484 0.21441376 -0.21802403 -0.23844607 -0.028690672 0.16148287 0.08728099 -0.1986161 0.20158985 0.19312897 0.073471434 0.18471035 0.0820248 0.44562665 -0.05355188 -0.07417717 0.059352133 -0.1540575 0.109226234 -0.040905498 0.23086709 0.16102503 -0.03896202 -0.29349336 -0.113134325 -0.12574233 -0.16520832 0.22008026 0.057537965 -0.15219657 0.006194319 0.16163754 0.04125639 0.08780388 0.08110899 -0.009770573 -0.07804319 0.02263337 0.042390928 0.13103223 0.123614244 0.25532997 -0.23359549 0.2672004 0.072734684 0.14195086 0.075879365 0.16949451 -0.006664059 -0.24459307 0.044778973 0.17736398 0.012064178 -0.0024059368 0.17522104
431 0.0058330726 -0.1240546 -0.07502685 0.18602364 -0.26110634 0.035519402 -0.22013597 -0.0556803 -0.41272146 -0.18653409 0.185303 -0.053554844 -0.1485818 -0.09654187 0.050942853 0.19310391 -0.25177884 0.16009453 0.18003105 0.24988055 0.3740065 0.12061226 0.12673312 -0.1652762 0.05191186 0.1144276 -0.34317657 -0.05096757 0.031595893 0.4360197 0.15517929 -0.090456784 -0.2900634 -0.09356689 -0.08941961 -0.035139494 -0.23240808 0.05085302 -0.06623162 -0.2533055 0.090086 0.022789165 0.15529367 0.12368659 -0.08380509 -0.09933429 -0.098624356 -0.1310279 0.032161556 -0.11831712 0.20263423 -0.05829528 0.39052466 0.19942982 0.040271867 0.0774435 0.36217844 0.06395012 -0.1617528 0.20465769 -0.23217267 -0.03209939 -0.21667257 0.16196261
465 0.039936416 0.059538554 0.07889023 0.2771347 0.28827837 -0.3644081 0.08425598 -0.12912129 -0.28545055 -0.11411517 0.13621043 -0.07793008 0.05062909 -0.05712254 0.00038795455 0.12290645 -0.24637789 0.15839665 0.24639924 -0.14051063 0.3235029 0.110365175 0.099764206 -0.19895639 -0.008521191 0.19173327 -0.21969539 0.024961313 -0.07388745 0.23484792 0.14013635 -0.18596362 -0.25339627 -0.065078 -0.09689267 -0.105362825 0.07727619 -0.029193902 -0.14146335 -0.11520065 0.12292255 0.22661965 0.024969468 -0.119555995 0.16960561 -0.05647437 0.2304292 0.014396411 0.07262162 0.10885314 0.026037076 0.1139448 0.23204076 -0.055049267 0.3761511 -0.113427326 0.2773822 0.13208558 -0.13702872 0.119459726 0.10152051 0.030017555 -0.12040316 0.077575
370 -0.05405807 -0.17004424 0.21857864 0.36075968 0.28668284 -0.23326266 -0.12749743 -0.0683779 -0.3120094 -0.19115783 0.093979485 -0.18855742 -0.17613588 0.066501856 -0.02893769 0.059687722 -0.09198462 -0.041021615 0.27801484 -0.057437424 0.11556948 0.03655847 0.15001294 -0.19821931 -0.07654945 0.1307972 -0.052111953 0.030753255 -0.016643895 0.06422291 0.10377957 -0.18127766 -0.19329016 -0.1088986 -0.10516176 0.044059925 0.2046845 -0.021659035 -0.16158946 -0.17676412 0.17197019 0.14385436 -0.10736809 0.05070957 0.11476028 0.1023685 -0.13497801 0.017812695 0.09037411 0.23982716 0.14729948 -0.17660609 0.19484976 0.15263318 0.38105053 0.009450137 0.2489429 0.18920863 -0.04353935 0.12175962 0.09622404 -0.021401092 -0.09998584 0.022479912
460 0.35371524 -0.05681426 0.26449758 0.27496484 0.171093 -0.15460274 -0.10913993 -0.21942939 -0.26446113 -0.41877782 0.085064165 -0.07590776 0.05800537 -0.05303185 0.36378843 0.44467145 -0.19690351 0.071798466 0.27771246 0.29506212 0.2233181 0.08740383 -0.008243169 -0.072946526 0.16100562 -0.025101373 -0.14175203 -0.24088757 -0.13466516 0.2443841 -0.09525261 -0.07518483 -0.19990604 0.013496037 0.0077358326 -0.09686428 0.1786639 0.22533692 -0.08860017 -0.036187656 0.4235333 -0.0194148 -0.3200533 -0.10680546 0.24849668 0.0024911196 -0.0008832722 0.008048535 0.20551455 0.009518862 -0.02491343 -0.124108315 -0.09089014 -0.019960158 0.08627899 0.112595275 0.0038964904 -0.030933669 -0.12318244 0.11334063 -0.086558685 -0.15071881 -0.07978299 0.01659989
456 -0.024171047 -0.12626548 0.19131203 0.16293566 0.01970969 -0.117656276 0.057606455 -0.01667612 -0.38830808 -0.19771244 0.058537923 -0.29619586 -0.12730102 -0.15416871 0.22036424 0.24276948 -0.19895631 0.06534263 0.05660052 0.096621014 0.09295386 0.33536875 0.11390121 -0.05055919 0.1423913 -0.0640744 -0.33153537 -0.13230914 -0.04931179 0.17467067 -0.06402445 -0.058182023 -0.32614043 0.014850002 0.09853466 -0.1746894 -0.05160446 0.16003248 -0.13853998 -0.37120938 0.16101207 0.08668792 -0.11604687 -0.067639954 -0.058789615 -0.0138522545 0.17616616 -0.10783917 0.08751463 -0.10726941 0.2819977 -0.09956633 0.26293278 -0.011920475 0.063611336 -0.060987428 0.39564803 0.27379915 -0.27177247 -0.04402418 0.04252266 -0.08780717 0.022168497 0.08227004
419 -0.35381305 -0.026718102 0.3337228 -0.03819847 -0.29398832 -0.11369279 -0.12516318 0.04367702 -0.2648793 -0.384162 0.06353073 -0.48521167 -0.26471445 0.047056448 -0.18476202 0.0019158808 -0.21767421 0.23804569 0.4608501 0.16394745 0.083099805 0.082229204 0.19861308 -0.016325444 -0.021596666 0.16461132 -0.2640591 0.05521645 0.16511102 0.00032347912 -0.08759265 0.3165884 -0.18314959 0.0064004473 -0.20707105 0.044972945 0.2589522 -0.050412696 -0.17132957 -0.27405345 0.367038 0.1251327 -0.010642483 -0.071502365 0.100938946 -0.068529844 -0.15105335 -0.09234526 -0.20134346 0.04578381 0.13274649 0.15625915 0.24634546 0.28748646 0.14748971 -0.056852486 0.27080327 0.049123652 -0.1787987 -0.09342766 -0.046544034 0.052526433 -0.09658338 -0.23501356
395 0.26005504 -0.100237824 0.26724017 0.308691 0.29902545 -0.31559443 0.08191797 0.042700004 -0.3014787 -0.22590391 -0.026087735 -0.12544529 0.057478894 0.043360513 -0.019480176 0.259407 -0.15656056 0.015530891 0.12121386 0.21768884 0.20673227 0.2460571 -0.027084794 -0.12307056 0.0869658 0.19285113 -0.09299167 0.001538317 0.032609675 0.10343614 0.01918254 0.010427454 -0.11596001 -0.13003282 0.0019280257 0.037406053 0.020427717 0.0102417115 0.064522035 -0.32644838 0.16797331 0.060667273 -0.048915092 0.052943625 0.07805758 -0.2428654 0.054176036 -0.25439408 0.0425053 0.046009846 0.29618776 0.09136694 0.17897113 0.11801852 0.35767436 -0.068985604 0.20372489 0.004483643 -0.22562921 -0.03083307 -0.119989604 0.020913858 -0.29241154 -0.06060787
400 0.17390473 -0.046150208 0.19094445 0.13586335 0.18772492 -0.16445784 -0.12495333 0.03695357 -0.14563805 -0.28436 0.34617805 -0.23098147 -0.03013595 0.0064061363 0.010034918 0.21073844 -0.072033636 0.002208188 0.43375233 0.06991547 0.28715742 0.08588626 0.111588486 -0.31644517 -0.02803759 -0.039291136 -0.109600805 -0.18711823 -0.04628273 0.23214574 0.11676037 -0.08360924 -0.3096445 0.0006272646 -0.06258572 0.010872164 0.01639195 0.033166915 -0.042519946 0.033999264 -0.07403419 0.14954415 0.087552704 -0.017812282 0.09858854 -0.09186555 -0.032469377 -0.08211925 0.14079188 0.13039546 0.122709654 -2.2085078e-05 0.26685724 0.02567726 0.27088392 0.022891331 0.13598065 0.07145821 -0.06466895 0.035623536 0.18090497 0.045988988 -0.0150465295 0.033802908
438 0.3728625 -0.07300291 0.27026767 0.28122407 0.054524582 -0.18669103 -0.055393957 -0.047016 -0.31371388 -0.12343599 0.12287592 -0.2033986 0.013924498 0.057470705 0.025568785 0.29526594 0.04846988 0.020491222 0.3311928 0.021670049 0.1803613 0.04805561 -0.06699527 -0.13309932 0.19652341 0.09203624 -0.1805413 0.0023690183 0.036169473 0.19344553 0.03253102 -0.013993085 -0.3021495 -0.07113324 -0.027182885 0.06520352 0.001657069 0.045370527 -0.123962946 -0.021680148 0.27943385 0.0504034 0.27232414 -0.21912315 0.09994299 -0.07687803 0.103964195 0.081408046 0.1245724 0.060157817 0.35658076 -0.27534613 0.21815853 0.062250584 0.20109512 -0.14071997 0.09878809 -0.12538527 -0.28807196 0.033169936 0.051355936 -0.010455968 0.10164491 0.16495188
378 0.107611775 0.038425542 0.2761304 0.23087746 0.06421644 -0.028147412 -0.18023679 0.037190404 -0.1472423 -0.10331609 -0.055481438 -0.2396086 -0.18637744 0.07619246 0.08572476 0.12324321 -0.06415934 0.10655259 0.33401114 0.22521104 0.33633468 0.1515522 -0.020306082 -0.21851678 0.0867864 0.2169505 -0.1856798 -0.07919157 0.19328919 0.14183062 -0.04031647 -0.24073963 -0.21203734 0.20947613 -0.21782552 0.14223471 -0.06902522 0.14051768 0.007923378 -0.18496491 0.26923236 0.0586131 0.14372063 -0.12408047 -0.037061185 -0.11960834 -0.18901172 -0.03719272 0.122116804 0.05043204 0.33393797 -0.022541929 0.32551566 0.15703712 0.20863432 -0.020312224 0.17182486 -0.043125868 -0.021462036 0.039979808 -0.0679243 0.1086673 -0.008200199 0.1006008
408 0.05609563 -0.16237797 0.22410059 -0.020839177 0.13410422 -0.38660088 -0.06520474 0.0035985098 -0.2151174 0.034986 0.15884931 -0.3155626 -0.03026207 -0.18915385 -0.09748911 0.24295217 -0.17894806 0.075974256 0.2609676 0.22132233 0.24469113 0.08008786 0.28480324 -0.14400831 0.14977618 -0.030475335 -0.2237185 -0.2080997 -0.001999258 0.30931213 0.12356729 0.11881144 -0.2107642 0.05419164 0.16300602 -0.016157113 -0.0027141024 0.22962353 0.19139747 -0.29611957 0.15416647 0.16492644 0.032714315 0.22920616 0.18338181 0.027873507 0.1557806 0.12677033 0.11697157 -0.10827645 0.24406026 0.16406505 0.2944099 0.07125052 0.26185554 -0.126876 0.31362468 -0.036042035 -0.30505654 -0.10175717 -0.10746741 -0.13380194 0.015963752 0.10178546
492 0.25580943 -0.17158501 0.2288191 0.15682992 0.054389354 -0.22181357 -0.30185053 0.019218283 -0.17337872 -0.28175482 0.1780986 -0.19629996 -0.01156602 0.23115109 0.13715981 0.21752733 -0.1873642 0.23630972 0.016465109 0.06466407 0.32890704 0.19231343 0.09317717 -0.12038826 0.11302563 0.055109944 -0.28168732 -0.059726804 0.25179428 0.12669487 0.07036026 -0.29263753 -0.22061907 0.06991592 0.023810836 -0.044773508 -0.09829933 0.00809067 -0.052292377 0.052557375 -0.0045127384 0.15796854 -0.11368583 -0.11054173 0.073273815 -0.11653763 0.11650014 -0.0021810008 0.21435402 0.15787464 0.22617525 0.0106074475 0.2968628 0.26453295 0.11603276 0.1686167 0.17401421 0.13102707 -0.27905494 0.08365253 -0.20248485 0.092784844 0.08081961 0.18266106
493 0.03347438 -0.23283142 0.34646997 0.27098686 0.037839137 -0.29259446 -0.0344604 -0.01756216 -0.004257634 -0.15618747 0.12575015 -0.24155897 -0.12584613 -0.10958419 0.1907581 0.1449877 -0.10735715 0.14351407 0.29631907 0.21330477 0.24212064 0.21478635 0.34848484 -0.037851695 -0.11872345 0.0035716956 -0.3380684 -0.11777972 -0.13384257 0.33978853 0.083925284 0.044607446 -0.19583163 0.17197244 0.11674795 -0.12257963 0.026257873 -0.020680275 -0.08022921 -0.3037042 0.03714399 0.21050085 -0.041919418 0.18578742 0.019723088 -0.059216607 0.17514302 -0.17037843 0.036668707 0.046996523 0.34083435 0.033827417 0.21047027 -0.024255868 0.23156571 0.059199266 0.33553126 0.26104647 -0.08740736 0.09629534 -0.010982275 -0.054447886 -0.09545623 0.14702918
417 0.2713493 -0.24822797 0.34838867 0.35801902 0.023205474 -0.36049643 0.06662326 -0.14981149 -0.24746251 -0.17786466 0.0039753392 -0.11345871 -0.11497353 0.0016714161 0.05707117 0.18765925 -0.16152622 0.18305477 0.3695002 0.18690948 0.17648523 0.0004486981 0.08889289 -0.03311422 -0.012189455 0.18654904 -0.1539067 -0.06147014 0.071742095 0.23113573 -0.015331369 0.09732881 -0.283954 -0.057808645 0.0068173353 -0.08194866 -0.008295328 0.016777951 -0.027835874 0.03950604 -0.1567914 0.069291525 0.041834 -0.078375645 0.15865508 0.00035365627 0.055585522 -0.06614645 0.26289764 0.17947778 0.23353717 -0.007617094 0.20516968 -0.029296786 0.096470304 -0.07433327 0.17483765 0.034322184 -0.25973937 0.038161315 0.008776891 0.14787832 -0.06664723 0.09909756
374 -0.027335538 -0.13763945 0.32915443 0.25085655 0.2885567 -0.03823912 -0.15680614 -0.05828069 -0.21225204 -0.0070793144 0.16477402 -0.21490847 0.08448033 0.01256813 -0.044642575 0.36103684 -0.0614941 0.060719736 0.046524502 0.4161639 0.27512538 0.09016239 0.17800382 -0.19163488 0.07632621 0.31539035 0.09540916 0.0046619126 -0.21495514 0.20804398 0.2013317 -0.17348756 -0.1019967 -0.021749755 0.018856118 -0.020927005 0.26741457 -0.045886844 -0.08974996 -0.16754161 0.18536997 0.03953195 0.021715257 -0.10140575 0.036756862 -0.12839395 0.04544094 -0.011940081 0.090219095 0.10378857 0.06772524 -0.113780245 0.28872487 -0.03930443 0.31888986 -0.092811316 0.20287436 0.18888156 -0.111209825 0.103433 0.17741346 0.11685395 -0.019835405 0.2472303
353 0.065045334 -0.031474512 0.14238751 0.20228542 0.08950137 -0.042450055 -0.16166344 -0.07010951 -0.30043706 -0.19228517 0.2307112 -0.26916945 0.011557785 -0.046243582 -0.037268184 0.25771785 -0.057300385 0.24343608 0.31395453 0.2882259 0.23565747 0.082849994 0.16938736 -0.09399672 -0.098697126 -0.23905854 -0.12188942 0.025772268 0.040108353 0.17802005 0.0132809635 -0.10061622 -0.2787019 0.24453713 0.0053154575 -0.25643817 0.015980596 -0.085315354 -0.14782941 -0.115335755 0.12912925 0.20332183 -0.002891456 0.007942939 -0.06522558 0.025971768 0.07842958 -0.067091286 0.19806771 0.22323886 0.14983562 -0.2828033 0.14855637 0.32180405 0.082458355 -0.1309581 0.30240855 0.017092275 -0.05086577 0.0009950818 0.21638742 0.05462529 0.061758142 0.10578634
404 0.011558648 -0.1992628 0.39669025 -0.010883987 -0.0008691475 -0.22409494 0.044309933 -0.08992026 -0.135036 -0.16284265 0.08563369 -0.19096805 -0.06078116 -0.08185504 0.25947562 0.09363016 -0.046599668 0.22875267 0.28798044 0.29015842 0.3317054 0.13424024 0.25867337 -0.11005745 0.019379653 -0.24752417 -0.57431877 -0.12230231 -0.098963685 0.19446103 0.13893247 0.06918066 -0.3115579 0.091342755 0.01801501 -0.016914304 -0.0059231073 0.11393517 -0.07453533 -0.32958725 0.020320756 0.15961462 -0.08804799 0.1252232 0.0715263 -0.013533778 0.04563485 -0.10016325 -0.020771947 0.085568845 0.21539608 0.0060525113 0.17745724 0.13660201 0.21363539 -0.113724105 0.008933832 0.3807521 -0.2502716 -0.020051526 0.07737571 -0.167362 -0.039934248 0.1200733
402 0.23390245 -0.15694155 0.121961154 0.19735014 0.2961179 -0.17092325 0.12503722 0.026760198 -0.3297561 -0.26341498 0.047628783 0.15879282 -0.017903868 0.15831707 0.11825182 0.30198565 -0.16297469 -0.16202557 0.5055345 0.0444034 0.20017053 0.216586 -0.040276468 -0.04631539 0.07432274 0.224414 -0.13448218 -0.042826917 -0.09553808 0.108927675 -0.014494293 -0.0329161 -0.03647764 -0.008808657 -0.0060475837 -0.15449817 0.2298506 0.14570695 -0.114486344 -0.08210209 0.14846613 0.013454586 0.011781245 0.037278745 0.36569047 0.11701634 0.062001258 -0.2198022 0.18172772 0.1905972 0.21068023 -0.20845202 0.18194965 0.14203857 0.17531085 0.04176671 0.1006252 0.08732366 -0.14662038 -0.088248886 0.053581443 -0.02529356 -0.27612036 -0.01969425
391 0.12090263 0.08429551 0.11416409 0.045798775 0.036995783 -0.22540595 -0.25287828 -0.03154657 -0.17398435 -0.29944947 -0.20433244 -0.40703645 0.006642568 -0.08372963 0.102399096 0.3165592 -0.03803899 0.18707167 0.3181123 0.081893586 0.3197796 0.042793505 0.05304504 -0.2841599 0.19103076 -0.1656206 -0.039067313 0.072789796 0.04387744 0.09064105 0.106807224 -0.23516062 -0.08153254 0.056053523 -0.0889885 -0.07303408 0.16254596 0.045971334 0.060893778 -0.0725842 0.0018293035 0.14192417 0.20364794 0.050527353 -0.04515942 0.04971388 0.14146748 -0.0154576525 0.13936715 0.13972525 0.3084404 -0.15346691 0.34697434 0.13003671 0.20662905 0.20255972 0.167489 -0.13005324 -0.1086144 -0.10725094 0.15057296 0.19254743 -0.18621506 0.28249162
363 0.19581334 -0.1763775 0.20453158 0.20972921 0.2021097 0.00823562 -0.013039226 0.15830822 -0.24035658 -0.09089297 0.10801656 -0.073402606 0.02900804 0.012615054 -0.023163963 0.38580763 -0.15972464 0.22887969 0.2589719 0.29328224 0.33663607 0.3997726 0.38662836 0.027682628 -0.03137753 0.009840663 -0.2783475 0.096149795 0.15509944 0.15645345 0.013349713 -0.13775009 -0.27450424 0.039027587 0.11294027 -0.067887455 0.22192025 0.1565308 0.044270907 -0.016839156 0.04510298 0.062135793 0.017736468 0.075692095 -0.015167639 -0.11278337 -0.114637315 0.17194493 0.04315763 0.026642943 0.20560214 -0.008518328 0.3566898 0.18763416 0.056110695 0.30930567 -0.062384043 -0.052280873 -0.08236232 0.16816796 0.2649835 0.13116719 0.08463655 0.05351575
366 0.16993019 -0.12433569 0.10846343 0.19838452 -0.09809689 0.05047376 -0.25587413 0.13715965 -0.2677094 -0.13052936 0.09546562 -0.44688606 0.12211638 0.014360871 -0.0158244 0.21303359 -0.044448897 0.054424547 0.25914446 0.21996063 0.13091525 0.17135182 0.28172633 -0.20808044 -0.061774313 0.124508396 -0.089777134 -0.0059626047 0.1490516 0.2812563 0.020050377 -0.021772686 -0.38770026 0.17495951 0.024789963 -0.06066177 0.0708395 0.017395511 -0.079999074 -0.05044812 0.11673167 0.2057878 -0.005275412 -0.0900044 -0.012114135 -0.09327773 0.11625457 -0.2357935 0.21383913 0.11642567 0.24343489 -0.18647574 0.1538177 0.06899458 0.1347577 0.08518391 0.21288292 0.02260997 -0.10036494 -0.056133103 0.07193767 0.06838598 0.06273328 0.14127617
444 0.23836985 -0.14860517 0.27455905 0.20994753 0.069282845 -0.4227714 0.03693642 0.010238934 -0.28917056 -0.17180264 0.3885557 -0.1397604 0.07899255 0.018155757 0.10743507 0.5638298 -0.10157307 0.13029853 0.22856227 -0.31418973 0.22296888 0.15860085 0.055625483 -0.15615991 0.20069213 0.15528922 -0.16407152 -0.09035597 0.20085709 0.15333568 0.056700993 0.19671154 -0.21790913 0.076424666 -0.023059169 -0.18283953 0.08222044 -0.034219675 -0.031750783 -0.008062892 0.2426329 0.23265116 0.037179094 -0.28826544 0.22046083 -0.007684084 0.123701274 0.020519033 0.06679621 -0.17384075 0.17742842 0.16178457 0.14303234 0.22058068 -0.006933105 0.01910336 0.16973996 0.06499393 0.08628554 -0.023533944 0.13836877 -0.27089608 -0.19783406 0.11935577
432 0.033056896 -0.04238384 0.37874618 0.50501263 -0.015320971 -0.2428544 -0.24380301 0.03819484 -0.23916565 -0.031316042 -0.04998917 -0.053015754 -0.056026757 -0.19945814 -0.16234758 0.18576239 -0.05422091 -0.08065882 0.14560446 0.21416333 0.18168025 0.27058482 0.05717226 -0.03561125 0.0005672684 0.19680539 -0.044225626 -0.07269787 0.020387022 0.38718683 0.1299128 0.06705115 -0.047382597 0.009827011 -0.14408632 -0.18172838 0.38462934 -0.01567979 -0.2147442 -0.09221603 0.14868498 0.033906747 -0.009647548 -0.13701603 0.29224926 0.068540335 -0.059260253 -0.04110816 0.069386564 0.13324401 0.12827285 -0.17590255 0.25809315 0.073187076 0.24345061 -0.115857616 0.19368024 0.21336742 -0.038865924 0.0675327 0.10001636 0.06457183 -0.09800682 0.2625752
397 -0.32724562 0.06488137 0.23436238 0.1689035 0.29716533 0.053705957 0.06538601 0.163155 -0.3677058 -0.117758326 0.32284892 -0.07927101 -0.20141724 0.044749297 -0.09132867 0.3416241 -0.19985491 0.17902675 0.4531133 0.28055677 0.047420178 0.31307927 0.39023656 -0.43818873 0.10455778 0.07502982 0.011656175 0.008732541 0.2733038 0.07843666 -0.0947198 -0.080121376 0.33745262 0.13159336 -0.12708294 -0.07322704 0.36020342 -0.15608923 0.093714826 0.10448444 0.29645705 -0.21325155 0.40626436 -0.37326425 0.3964558 0.121558934 -0.10654412 0.03389458 -0.36727095 0.013894303 0.012848356 0.21708517 0.057636127 0.11945768 0.018305458 -0.11666681 0.25836635 0.38531417 -0.1327806 0.19797221 -0.032500237 0.00075473345 0.06679655 -0.23941496
463 0.26971945 -0.12965369 -0.0902627 0.35536402 0.34275967 -0.20254005 -0.106238775 -0.15688922 -0.25382537 -0.09450973 -0.07772494 -0.3794333 0.18074095 0.14102097 0.065824315 0.3562633 -0.040796664 0.21924084 0.35433474 -0.13963456 0.32735023 0.29384834 0.16442552 0.07568507 0.1407709 0.18484178 -0.4069093 -0.39861673 0.05758209 -0.27229255 0.17757767 -0.18218257 -0.15318412 0.10251486 -0.2073393 -0.098432675 0.31472248 -0.023711072 -0.09493012 0.16842775 0.15838501 0.058658596 -0.08148672 -0.07654874 0.21477145 0.23467569 0.060409825 -0.08117369 -0.051913194 0.06841289 -0.09866731 -0.2574104 -0.021479629 -0.25381342 -0.119552605 -0.19468987 0.2564382 0.15195467 -0.14873634 0.14366174 -0.13438518 -0.15375902 -0.12526947 -0.17553215
414 0.08342739 -0.33556917 -0.12722893 0.18589248 -0.055387225 -0.28585917 0.14009206 -0.16423255 -0.3539218 0.0793196 -0.073669076 -0.33172494 -0.2775038 0.2995792 0.010901882 0.3910775 -0.17042921 0.061076388 0.007661044 -0.011803432 0.12381548 0.25608632 0.12725663 -0.4755993 0.27079585 -0.1146892 -0.07234142 -0.054521084 0.2454798 0.3744034 0.039116982 -0.14240138 -0.16874787 0.25403562 0.008425892 -0.17961511 0.06444276 0.26317233 -0.03833923 0.063165076 0.3022861 0.18324532 -0.122905955 -0.34686112 0.07734445 -0.28272676 -0.26823577 -0.075491875 0.12430083 0.004887413 0.35450166 -0.29888096 0.0909506 0.03874532 0.42191723 0.102797724 -0.019537842 -0.011656958 -0.049503166 0.05151863 0.25475946 0.24434473 -0.082490735 0.0016841658
484 0.12283379 0.11741508 0.37564775 0.12493475 -0.00880655 -0.29128015 -0.05796711 -0.15507273 -0.24281913 -0.03761791 0.052229717 -0.3095084 -0.116573244 -0.16932169 0.13708463 0.12046741 -0.33490553 0.07691545 0.002266003 0.25545675 0.24042603 0.13993005 0.47873324 -0.20063129 0.078200996 -0.035762034 -0.24099617 -0.089725405 -0.018190697 0.19038758 0.052308213 0.064243674 -0.020318495 0.107953474 -0.049845222 -0.08473172 -0.088349216 -0.15568529 -0.12884226 -0.40942582 -0.0014912462 0.16446537 0.011441336 0.038964193 0.08623525 -0.03043418 -0.037366852 0.0548811 0.05871612 -0.08941422 0.26629946 -0.20852828 0.21540056 0.046940118 0.20574103 -0.031571303 0.37088 0.24868903 -0.20636557 -0.13635293 0.09009919 0.00081179134 0.28000203 -0.110897616
436 0.2582133 -0.077209204 0.15260662 0.33800864 0.18091826 -0.20978197 -0.114420876 -0.095843226 -0.40116924 -0.056915395 0.08833535 -0.61153764 -0.18447703 0.15557273 -0.08827728 0.13849808 -0.18560702 0.08452763 0.17227013 0.033537783 0.022556009 0.11179533 0.17954658 -0.42163086 -0.16299853 0.40139562 -0.12505865 -0.07592455 0.12659602 0.11312576 0.04629846 -0.08631812 -0.33468676 -0.042584337 0.045269866 -0.0143902125 -0.0513494 0.23137887 0.11322793 -0.020982463 -0.024062028 0.116974406 -0.016756874 -0.079165585 -0.13051191 -0.024398439 -0.1620131 0.007211416 -0.05331428 -0.07164567 0.19783658 -0.14013277 0.3090003 0.08557728 0.13637546 0.12895009 0.07049919 -0.08358116 -0.24818785 0.060020596 0.124837786 -0.13156854 -0.17245792 0.2530532
461 0.15465195 -0.1254531 0.16224544 0.38909602 0.28500327 -0.29451215 -0.09971667 -0.15673865 -0.35233068 0.014124137 -0.0073553063 -0.26086205 0.0126866065 0.035079453 -0.118460074 0.22542284 -0.44669524 0.14098188 0.24591582 0.05369892 0.24315809 0.25317773 0.075877436 -0.14004877 -0.04421777 0.26642096 -0.07582081 0.08689283 0.15451925 0.10724592 0.054105915 -0.1578938 -0.14983878 -0.23476574 0.017809713 -0.24096073 -0.038179163 0.056958206 0.061451457 -0.15119426 0.17860049 0.031585895 -0.041400984 0.108720005 0.061113 0.043561365 -0.08129185 0.051573914 0.16286123 0.06966586 0.18682848 -0.18257469 0.18514243 0.1389683 -0.0053238226 0.15866303 0.09810042 -0.13326147 -0.16475226 -0.076509535 0.16761184 -0.13757911 -0.21218297 -0.038749218
364 -0.2768975 -0.50349915 -0.12515508 -0.111124456 -0.64193135 -1.049963 0.32828712 -0.80945826 -0.38641647 -0.44805488 0.27322537 -0.4292767 -0.18808283 -0.86312544 -0.04933846 0.2311912 0.35596904 -0.87537396 -0.012641973 0.55384296 0.30936748 0.871039 0.74318767 -0.11002043 0.26737133 0.69941765 -0.24477005 0.030541152 -0.02869401 -0.35218114 0.06219417 -0.65669495 -0.062718034 0.15215929 -0.6792252 0.33431864 -0.31635645 0.20610568 0.55698925 0.21982235 -0.23831216 -0.5650328 0.54101974 -0.21367346 0.25601432 -0.31565928 0.9858039 -0.354558 0.7033417 0.6835594 -0.77021194 -0.26796734 -0.20350334 1.0434222 0.43630186 -0.03695674 -0.37938863 -0.5227383 -0.071291536 0.6449832 0.24104571 -0.37286046 0.42303467 -0.6496728
198 -0.43133602 -0.47939575 -0.1220097 0.03402127 -0.66843086 -0.97863096 0.25595853 -0.86024874 -0.403886 -0.41158777 0.30423552 -0.35455143 -0.08650636 -0.96174467 -0.049722817 0.077123016 0.3943924 -0.8058933 0.044059277 0.55876875 0.40710858 0.89169747 0.71291554 -0.17859635 0.30140328 0.6561492 -0.13963957 0.04572967 -0.06721628 -0.3735384 0.1313529 -0.74372673 -0.03011721 0.21257515 -0.59258133 0.32168156 -0.22562157 0.25283527 0.5869121 0.09782895 -0.15122356 -0.7151181 0.49542078 -0.14793664 0.14987843 -0.33550152 0.9893352 -0.29991168 0.7036349 0.6561889 -0.7163202 -0.19950335 -0.13676749 1.022162 0.35209227 -0.06404709 -0.36552793 -0.553476 -0.14619824 0.66125077 0.35407403 -0.29451177 0.36547425 -0.6596237
487 -0.0005640431 -0.121733285 0.3097284 0.19283617 0.07510315 -0.118868686 -0.03552641 -0.1914792 -0.04112057 -0.12111106 0.27990928 -0.32719082 -0.13992254 0.08838297 0.08854941 0.2025351 -0.011789296 0.35315004 0.30622998 0.20054688 0.3855951 -0.11230345 0.16848671 -0.21238711 0.07423784 -0.20554903 -0.33725885 -0.004865774 0.18166937 0.31151402 0.14904831 -0.12779517 -0.20259583 0.04523129 0.05488571 -0.31318733 -0.0027395198 -0.008520638 -0.1820631 0.05883787 -0.076496 0.21446301 0.010227551 0.06582718 0.015676877 -0.12046304 0.13273731 -0.22148442 0.07253235 0.392077 -0.0016544135 -0.05045484 0.2000115 0.24025586 -0.12562814 0.03263343 0.24779233 0.0924068 -0.08923098 0.09016595 0.10936607 -0.2188021 0.017815487 0.2732716
452 0.2516011 0.0001657818 -0.13120508 0.068080015 0.089542605 -0.08984825 0.19077262 -0.12174038 -0.5609171 -0.23999783 0.05674083 -0.43868607 -0.15817617 0.0081950305 -0.0071368236 0.48833367 -0.14612271 0.033088602 0.34856695 -0.011702614 0.23836707 0.051035102 0.09366585 0.07270588 0.020523112 -0.043743473 -0.015248654 -0.17827912 -0.01500572 -0.08736981 0.22978632 -0.24230517 0.032431938 -0.12432167 -0.30750892 -0.030621456 0.36510694 -0.09668855 -0.10050326 -0.2180303 -0.19055587 -0.18317272 -0.11883183 -0.07187721 0.019779572 -0.015053044 -0.026548136 -0.08471671 0.14159463 0.3674266 0.40389147 0.15585527 0.25836444 -0.12376357 -0.086297676 0.014728547 -0.0062148897 0.19411549 0.015978632 0.03538512 -0.08927557 -0.029941326 0.062402632 -0.092196114
355 0.37671354 -0.0064523392 0.0025856667 -0.011859418 -0.0037577474 0.013262353 0.022406936 -0.06711471 -0.7185903 0.04549726 -0.15044203 -0.17950696 -0.0903415 0.025114445 0.066707715 0.37051684 -0.054639876 0.2140526 0.30761743 0.17381242 0.18176685 0.27317265 0.08462748 -0.089107014 -0.0149919335 0.23331574 -0.17923701 -0.14255957 0.2470842 -0.18781069 0.4398046 -0.11334187 0.18612936 -0.010610218 -0.4924558 0.025980819 0.46774626 -0.12912779 -0.14488263 0.070346236 0.116592266 -0.18720932 -0.09071629 -0.038410064 0.29651788 0.16505815 0.30656505 0.13751434 0.034281965 0.02777222 0.14528452 0.10996113 0.27989247 -0.15467392 0.030472245 -0.04715761 -0.014192552 0.15169916 0.12818913 0.13426359 -0.20597179 0.18258615 0.037355382 0.14909342
423 0.2520849 -0.06283951 0.11408726 0.24997854 0.32393342 -0.17380741 0.20453522 -0.014140624 -0.45394474 -0.31903344 0.103124864 -0.3362785 -0.347415 -0.039126582 -0.059918236 0.10163045 -0.31703332 0.2666106 -0.0745442 0.1991626 0.30756217 0.104699336 0.24496758 -0.17086531 -0.069381975 0.00546511 -0.10404635 -0.06344717 -0.004089812 0.1643449 0.062222518 -0.13148549 -0.50489306 -0.19037205 0.07042994 0.047587853 0.09775417 0.3246245 -0.012842538 -0.026828678 0.22630477 0.03437753 -0.060617838 0.10689769 0.14431459 0.03089797 -0.07919065 0.00014895774 -0.0095400205 -0.07160738 0.03830152 -0.18485697 0.2312575 0.0018058212 0.028224094 0.17121562 0.1423775 -0.09682342 -0.13206859 0.121618934 -0.01727613 0.14192948 -0.08247987 0.056467842
430 -0.36682194 0.00814301 0.36247355 0.50752604 0.17626747 -0.27744228 -0.2618592 0.0021554956 -0.47137633 -0.09949157 0.017418776 -0.24939838 -0.21693632 -0.25349593 0.113822974 0.059410226 -0.31047136 0.21324143 0.20260683 0.077363 0.061163183 -0.0009923147 0.120845206 -0.081949666 -0.060019884 -0.08062713 0.047632236 0.026105998 -0.16707231 0.097268365 0.061746866 -0.06941134 -0.2242223 0.01497544 0.07002283 0.1507981 0.19628026 0.17084645 -0.3057648 -0.14138116 0.078226276 0.20591825 0.014881369 -0.0858571 0.20303102 -0.086354874 -0.1081776 -0.1899011 -0.08618164 0.20949504 0.2265241 -0.055613168 0.3853566 0.16883133 0.1812573 -0.0809889 0.11786023 0.13942462 -0.13005391 0.07780658 0.03550371 -0.21886086 -0.034109496 -0.08890464
388 0.26628175 -0.33834803 0.27382436 -0.049210116 0.13207681 -0.35486612 -0.024833176 -0.06911329 -0.14108813 0.12307687 0.012350068 -0.2271273 0.033940725 0.17262489 0.010155055 0.14615095 -0.14433868 0.15427919 0.40385514 0.089846954 0.43849033 0.02365021 0.31487438 -0.24616052 -0.16449843 0.10162614 -0.23126388 -0.20752297 0.1673369 0.14622125 -0.00410992 -0.0050788634 -0.14867616 -0.007502031 -0.027865367 -0.2043122 0.26772675 0.18812947 -0.26586005 -0.1355376 0.02297488 0.113570444 0.09638045 -0.06760404 -0.04256095 0.13748242 -0.099027805 -0.2497022 0.26611608 0.11496722 0.29372412 0.057103697 -0.009234224 0.1714178 0.008279963 -0.18507881 0.038194537 0.15886255 -0.07973603 0.17372335 0.12583405 -0.1301305 0.020073606 0.029489573
439 -0.07658668 -0.07287482 0.18052645 0.43089664 0.15097599 -0.19045421 0.26546583 0.13541386 -0.24632598 0.08844303 0.28203985 -0.28950912 -0.010039155 -0.12867345 0.13370849 0.29430947 -0.044301227 0.20654437 0.109463595 0.01729938 0.30808946 -0.052513875 -0.05490253 -0.19585091 -0.2949583 -0.16812187 -0.116267934 -0.18177833 -0.21310386 0.30417183 -0.21444282 -0.18030225 -0.031495076 -0.019570777 -0.181364 0.05936577 0.33021003 0.031988833 -0.22682709 -0.31936195 0.6020663 0.023611054 0.119452536 -0.07583443 0.22661784 0.20095286 0.027939545 -0.119192824 0.17286853 0.08775639 -0.22323899 0.07417929 0.3023413 0.32443658 0.13741955 0.1338241 0.29642498 0.069204606 -0.35992187 0.15252216 0.069652475 0.13803585 -0.27260643 0.2515565
496 0.38846737 -0.25304276 0.07476487 0.10942824 -0.0788931 -0.24748278 -0.016931158 0.09272917 -0.20011742 -0.0706064 0.2397533 -0.48643002 0.024608767 0.32021052 0.058576815 0.15194295 -0.26047218 -0.02267235 0.31042168 0.33752996 0.027132459 0.409842 0.26063478 -0.43631133 0.26146924 0.034831543 -0.1693416 -0.06907543 -0.3069279 0.2768004 -0.00828902 -0.102321975 -0.025880229 0.04200649 -0.17606303 0.20267947 0.075149216 0.04828323 -0.20822744 -0.112592384 -0.22884086 0.018892622 -0.015134821 -0.26795474 -0.1808105 -0.07689485 -0.21595418 0.09812461 -0.006169949 0.14467837 0.18282515 -0.12204251 0.157767 0.21883744 0.08146177 0.4336858 0.43241063 0.100899555 0.13275723 -0.18679082 0.051023275 0.12264446 -0.15877007 0.07858699
360 0.3547024 -0.4097433 0.0009865232 0.18085164 0.23525183 -0.35718027 0.039358202 -0.12706901 -0.34693822 -0.21074289 0.13346918 -0.037852228 0.057477385 -0.15335523 -0.13829795 0.35752422 -0.20587356 -0.056032214 0.4949443 0.00796257 0.20453812 -0.11502279 -0.06361683 -0.035198342 0.27264792 0.20712516 0.06944976 -0.22216867 0.015723718 0.22263093 -0.15792504 -0.0748449 -0.21580826 0.26693958 0.1292385 -0.0040958077 0.28995076 0.045408633 -0.12262199 0.035794035 0.21766976 -0.077119075 -0.21761514 0.045166016 0.097568154 0.21419057 0.032173116 0.21203747 0.30833852 0.11456437 0.23579623 0.04458009 0.13201451 0.18493839 0.18376002 -0.10177571 0.06401676 -0.05718882 -0.5496781 -0.0061797 -0.21214896 -0.24303067 0.12651494 0.08921825
482 0.091004744 -0.080485046 0.12134073 0.27094582 0.123821065 -0.14956504 -0.2711542 -0.042244893 -0.25679874 -0.27246094 -0.019467209 -0.2959437 -0.018149432 0.023057038 0.124597356 0.43236446 -0.14302349 0.20601818 0.18715386 0.13788006 0.04070053 -0.08735158 0.4598007 -0.07983283 -0.09993643 0.18614854 -0.12274837 0.041671377 -0.09147684 0.19383831 0.13066813 -0.04593859 -0.16030915 0.33724272 -0.10868609 -0.08023147 -0.027707603 0.04694728 -0.3012252 -0.0413407 -0.12708338 0.08007031 0.014633974 -0.30656973 0.012786764 0.2684742 0.24881388 -0.11305767 0.054945886 0.13140215 0.2638852 -0.37732378 -0.049068835 0.15671253 0.06111933 0.25088963 0.15956788 0.11015731 -0.10708914 0.03001131 -0.047760155 0.023976268 -0.029749554 0.2898829
369 -0.2823142 0.110091045 0.41411084 0.18270771 -0.052415922 0.13792597 0.22154337 -0.1523552 -0.17464375 -0.3895335 0.2644879 -0.37878326 -0.6916682 -0.09039873 -0.24845973 0.3525459 -0.15726492 0.21027814 0.43664134 0.13366598 0.10294814 0.46302253 0.14467166 0.02508513 0.24206814 -0.13590744 0.18164451 0.010845671 0.39394876 0.024701227 0.07808022 0.2791378 0.19535744 -0.16379713 0.011290281 0.36721858 0.26386422 -0.38551342 -0.15759443 -0.02518989 0.3636187 -0.050035696 0.20365676 -0.32875073 -0.09240023 0.47287735 -0.10402963 -0.16740151 -0.0828339 0.032547053 -0.40970978 0.22003163 0.12535188 0.3802775 0.37127063 0.44032133 0.26050985 0.161879 -0.2660379 -0.014595993 -0.1781048 -0.21131282 0.22609822 -0.24953438
422 0.3788352 -0.26872683 0.09738637 0.28780967 -0.14257798 -0.089975566 0.020072732 -0.22162029 -0.45305172 -0.28328153 0.18131366 0.09114635 -0.034762565 -0.23628381 0.2082932 0.4011273 0.123276405 -0.06948857 0.35594118 0.0148253245 0.12239253 0.3434681 0.07084201 -0.38054788 0.06023878 0.08673715 0.15866987 -0.104316704 0.28592604 -0.09319802 0.21630284 0.08980518 0.044695593 -0.011221058 0.024804493 -0.0599978 0.57468575 -0.08878559 0.20714736 -0.15038608 0.29500324 0.20000392 0.062997974 -0.015117619 0.10921579 0.11867508 0.19885178 0.065755084 -0.35457122 0.042941947 0.36636093 0.042834416 0.26872438 -0.14139819 -0.15571034 0.12814592 0.07780874 0.03426576 0.10935805 0.34287655 -0.11195684 -0.09829152 -0.04144084 0.11281191
441 -0.3836556 -0.4760828 0.05255377 -0.04628671 -0.54306895 -1.0647796 0.3647433 -0.75129896 -0.2723743 -0.32206482 0.13450857 -0.43678498 -0.10473213 -1.0712224 -0.07742919 0.1355619 0.4163868 -0.8224311 -0.09008456 0.6937023 0.40990195 0.89492816 0.7460633 -0.16132383 0.1656155 0.6261907 -0.2460549 0.13496146 0.036405783 -0.32952958 0.08173732 -0.75380176 -0.110839054 0.19544783 -0.59599215 0.2281079 -0.1947627 0.19372058 0.66419685 0.10567747 -0.13389726 -0.61114854 0.4705963 -0.049849343 0.36971378 -0.4335863 0.8933158 -0.40625766 0.624578 0.61753243 -0.79496425 -0.30366042 -0.14151455 1.0299859 0.41531077 0.06932292 -0.41542116 -0.58281755 0.033196814 0.48975912 0.23283611 -0.3663722 0.33375928 -0.6295313
368 -0.03193959 -0.20313956 0.15934874 0.21091364 -0.081604 -0.25691938 -0.30789083 -0.16745234 -0.19640075 -0.094394386 0.25091937 -0.12701969 -0.120530255 -0.005459083 0.29971886 0.40261626 -0.3857524 0.3333555 0.37098086 0.23810688 -0.004041591 0.050102074 0.32006475 0.32862568 0.009962064 -0.08035521 -0.18964992 -0.21499959 -0.056482967 0.34122664 0.04452261 0.15646312 -0.004882682 -0.063354485 -0.07767595 0.059693888 -0.022708891 0.05255841 0.14025563 -0.16376461 0.054966528 0.05308692 -0.30926725 0.23865847 -0.15705268 -0.44724965 0.29556206 -0.24071945 0.075461075 0.048471175 0.22899581 -0.38826498 0.33037934 0.19761136 0.24008448 -0.09632925 0.2676684 0.17619418 -0.13269721 0.024442151 -0.056902945 -0.09703483 0.03830896 -0.027430333
399 -0.3066735 -0.50894165 0.054561865 0.098480485 -0.72184604 -0.9350213 0.4016102 -0.75209385 -0.3553187 -0.42552122 0.17478988 -0.45463493 -0.20718494 -0.831444 -0.0848246 0.11299538 0.39080286 -0.90524554 -0.09516005 0.7053171 0.55523765 0.78066635 0.7276408 -0.11164053 0.18949483 0.69877076 -0.34512582 0.09555642 -0.0116520515 -0.3776498 0.057660438 -0.58248305 0.017710729 0.19389391 -0.5029629 0.26780707 -0.19312072 0.29716286 0.5842048 0.18109865 -0.21296488 -0.65931135 0.5571248 -0.0611727 0.1554548 -0.5277892 0.88240546 -0.30057758 0.56477773 0.78266287 -0.75142825 -0.34844136 -0.19397639 1.0236427 0.43199518 0.09358451 -0.44166002 -0.54171276 -0.041410606 0.56675667 0.31926712 -0.39134684 0.41507676 -0.65905035
479 0.14013207 -0.09192995 0.035188504 -0.0015676958 -0.07116515 -0.30820072 -0.021010678 0.13930164 -0.41359544 -0.16664901 0.18578717 -0.43086994 -0.11100954 -0.38009313 0.12983984 0.3227733 -0.11259265 0.01574238 0.17199033 0.35675186 0.23784219 0.13047802 0.040839568 0.031058514 -0.057035264 -0.23860754 -0.34019595 -0.079787955 0.07519986 0.18523432 -0.04333516 0.10277782 -0.21566597 0.033189174 0.31165633 -0.074141234 -0.106018044 0.25035873 0.14553553 -0.308697 0.04093924 0.12739605 -0.10488561 0.008400867 0.16136369 -0.21470091 0.27836886 -0.06716807 -0.11099602 0.01567649 0.2354998 -0.2170063 0.16999854 -0.16193426 0.19855618 -0.027686406 0.4739183 0.13525827 -0.30681056 0.050558347 0.07757469 0.080996305 -0.11066273 0.06958566
387 0.1338064 -0.2504186 0.2920255 0.58974445 -0.0048910263 -0.28146565 0.1820302 -0.13123915 -0.17987062 -0.27313823 -0.020039134 -0.21831949 0.164077 0.016811565 -0.2714939 0.36049208 -0.35949448 -0.13253304 0.3274588 -0.18354806 0.1927741 -0.114141926 -0.0008154981 -0.35339588 0.15984266 0.30140248 -0.34183535 -0.55605 0.14787593 0.048947703 0.15187623 -0.19896817 -0.21691939 -0.14730674 0.29464146 -0.024995228 0.18818332 -0.13762493 -0.18660498 -0.018124891 -0.05506646 -0.038186308 0.30900458 0.27906662 0.052852944 0.017864909 -0.1476571 -0.06797621 0.119985804 -0.27138984 0.124091595 -0.3091048 0.26732185 0.044927735 0.122927845 -0.08049991 0.13601476 0.007609213 -0.29348406 0.101561025 0.14818954 0.025936278 0.02876507 -0.18266575
367 0.019039478 -0.15408188 0.06417207 0.08346922 -0.008009401 -0.08708445 -0.042568136 -0.29813215 -0.4435168 -0.01386099 -0.5195912 -0.12699689 -0.36163983 -0.08765461 0.34069097 0.26326203 -0.030971954 0.12021251 0.4991292 -0.108318105 0.32588166 0.1354407 0.17625129 -0.19773886 -0.009573292 0.103469305 -0.04343818 -0.08185858 0.23591141 0.13942185 0.1903862 0.05960428 -0.10332598 -0.14922328 -0.2848883 -0.21657614 0.5423082 -0.1523379 -0.060544137 0.121535644 -0.10382636 0.024659263 0.10491369 -0.07415752 -0.083853535 -0.07204885 0.16703269 0.058470923 -0.057009753 0.06511107 0.030771682 0.04459855 0.16390797 -0.1624573 0.2580258 0.25339317 0.25284258 -0.10285845 0.06508049 0.084150046 -0.05004465 0.25690025 0.140598 0.10088291
434 0.24386653 -0.10562259 0.27735665 -0.098856166 0.21477431 -0.30965936 -0.112969615 0.19725066 -0.46414575 -0.015350238 -0.13688076 -0.31510776 -0.03018153 0.27732107 0.20621534 0.39829996 -0.042411696 -0.062734276 0.26994994 0.15962504 -0.012750724 0.18976395 0.19194803 -0.41406998 0.2548154 0.034502156 0.14147624 -0.18409169 0.061437745 0.08363102 0.09219475 -0.042779367 -0.30315188 -0.14103872 -0.03351976 0.19776398 -0.04659273 0.340583 -0.18407243 -0.002384561 -0.2814493 -0.05150971 0.06917788 -0.12928775 -0.08177514 0.1099071 0.012359231 -0.15527765 -0.1967661 -0.03589513 -0.11125946 -0.3911685 0.26037294 0.33321744 0.21681547 0.17301452 0.36302364 -0.12344471 -0.2357017 -0.04702507 -0.058062565 0.23193225 -0.24290442 0.28727487
473 0.08324892 -0.34112874 0.20616162 0.21895182 0.35069704 -0.25587726 -0.08144763 -0.28688666 -0.18090464 -0.22984101 0.10621749 -0.22363923 0.027885443 -0.23247509 0.19118406 0.12980309 -0.38629675 0.3650214 0.019068247 -0.077160776 0.38165414 0.07325579 -0.13782398 -0.44984958 0.23794001 0.010594736 -0.10534555 -0.024921825 0.010153175 -0.10351031 -0.03837301 -0.14566329 -0.29378858 0.16886331 0.023636641 -0.064936735 0.17753534 0.26020476 -0.17880028 -0.023165718 0.03590436 -0.028838078 -0.22876483 -0.0626819 0.31077537 -0.082384236 0.03921935 -0.0603802 0.3444067 0.06474446 0.13939446 -0.09071373 0.15703309 0.14924379 0.019964067 -0.1204632 0.21347404 0.18719499 -0.16272281 -0.10111538 -0.27948534 -0.20442231 -0.17821546 0.050805118
481 0.44643188 -0.010244289 0.043892875 0.028859798 0.08043229 -0.047479887 -0.033145525 -0.15740955 -0.34293362 -0.003944361 -0.12230356 -0.31184718 -0.116778046 -0.11959671 0.3226948 0.4206634 0.03828067 0.031107001 0.1991852 0.13208422 0.44387764 0.3479064 0.112544574 -0.27508944 -0.40117216 0.2714567 0.040308073 0.016054785 0.19097891 0.04489761 0.22807197 0.05104738 0.3882494 -0.084660485 -0.20552905 -0.2889679 0.57063234 -0.13972993 -0.15534496 0.45323944 0.3226569 -0.2443921 -0.015435028 -0.054418314 0.0039171306 0.07394237 0.19355793 -0.15326628 -0.0819998 0.19960631 0.06829795 -0.06851828 0.48843163 -0.17847908 -0.16905098 -0.0032239184 0.11792516 0.11180857 0.017913638 0.04775294 -0.26802796 0.08895532 0.023672277 -0.15487635
409 0.042739842 -0.15077336 0.14865644 0.07705608 1.9796003e-05 -0.036525838 -0.12660456 -0.23248985 -0.22524258 0.018836912 0.1786408 -0.40238023 -0.15557645 -0.030562036 0.19251713 0.29261395 0.058244955 0.31015018 0.19531721 0.3153737 0.25869283 0.014307437 0.26179227 0.146263 -0.022198277 -0.09959765 -0.43567848 -0.061135978 0.13499711 0.3854866 0.032616857 0.27024406 -0.101997815 0.22974904 -0.030658437 0.09638639 -0.08194028 -0.06487772 0.13034132 -0.29914713 0.03262329 0.13707069 -0.039507985 0.14984031 -0.017548012 -0.11152439 0.20405549 -0.23737296 0.11903187 -0.03607441 0.31562474 -0.1955229 0.21587719 0.18380375 0.18021701 -0.15038697 0.18432987 0.2875522 -0.3127793 0.11740024 0.071156055 -0.22759841 -0.056969114 0.16774033
392 0.3740135 0.12203231 0.10613753 -0.04539828 0.20048477 -0.32896763 -0.23755708 0.0100765955 -0.28793493 -0.15990561 0.032064497 -0.46248272 -0.18582901 -0.23005784 -0.14019248 0.25406164 -0.11760026 0.21239349 -0.020648682 0.01444148 0.30411658 0.010035427 0.14581743 -0.1810072 -0.018743195 -0.046416197 -0.2744219 0.08422833 0.035273626 0.25833192 -0.03610254 -0.10972956 -0.17986089 0.022852074 0.01708454 0.073202305 0.106778234 0.09852632 -0.15782142 -0.2779355 0.09053321 0.09467225 -0.09354477 -0.10502976 0.24446833 -0.123234436 -0.04851919 -0.12958759 0.31618094 -0.0055302796 0.039338462 -0.30480438 0.38765162 0.09838804 0.06567247 -0.049489945 0.24475394 0.0021157458 0.08542626 0.105936825 0.13353045 0.101772 -0.054108452 0.043838207
445 0.22306965 -0.21819843 0.19939122 -0.026949188 0.44410557 -0.07295926 0.19641455 0.03653054 -0.2042246 -0.15728167 0.24008732 -0.1674446 0.19231501 -0.20588066 -0.028322851 0.14863996 -0.3670958 0.1895207 0.36673316 -0.17308964 0.56361073 0.08350068 0.12772511 -0.108877055 0.2689618 -0.041606996 -0.29030403 0.19741781 0.15817226 0.11224907 0.081229 0.16712384 -0.13153963 0.13139111 0.13612333 0.014483498 0.11371548 0.1530139 -0.11184044 -0.13993795 0.09820208 0.14341758 -0.09605339 -0.17533737 -0.08108589 -0.11843407 0.38087428 -0.20812769 0.34160796 0.27874887 0.10479345 -0.044850953 0.050495364 0.06147862 0.10439443 -0.18578975 0.21921785 0.18012273 -0.16563174 0.07413238 0.032479696 -0.29827842 -0.3385505 0.08135132
398 0.119911194 -0.16433722 0.13919035 0.19400476 -0.017659048 -0.10931221 -0.10661191 -0.05889289 0.1134389 -0.15012114 0.17223597 -0.6491579 -0.1221253 0.026807714 0.24859077 0.36210304 0.030309463 -0.007987304 0.33929095 0.22510998 0.18149036 0.09302127 0.18216154 -0.09274613 -0.15121107 -0.21211492 -0.2592539 -0.17299382 -0.06311243 0.23234662 0.016502772 0.1750358 -0.32807007 -0.037097346 -0.059460923 0.122966066 -0.14877255 0.22914553 0.0037419517 -0.32196438 0.02790278 0.046718426 -0.13578835 0.17939834 0.062055107 -0.2606515 0.4535511 -0.0787436 0.022949617 -0.16108364 0.22835346 -0.10902596 0.38356313 0.17990848 0.099241495 -0.36277074 0.31147808 0.1906924 -0.32845694 -0.08370972 -0.043436956 -0.030905567 0.05887415 0.012650714
359 0.16771343 0.135541 -0.057763394 0.14694338 0.09615488 -0.21388566 -0.087225504 -0.17795408 -0.45962542 -0.048158333 -0.29002264 -0.14430988 -0.4328435 0.02713902 0.19490583 0.33960497 0.19099036 -0.0016166677 0.49190685 0.014536923 0.5143779 0.24442132 0.008215339 -0.20388658 0.06813701 0.09167296 -0.18895495 -0.21170075 0.2145593 -0.22981247 0.29530132 0.0061122323 0.10678368 0.14458273 -0.45411015 -0.35592398 0.5014825 -0.15911381 -0.0739886 0.12177079 0.012324408 -0.4931397 -0.03880622 -0.13899316 -0.0032745097 -0.054927267 0.3115484 -0.065458834 -0.13812803 -0.17979571 0.19527951 0.2578496 0.2314134 -0.08898305 -0.17789835 0.2671682 0.081910856 -0.0906708 -0.028481657 -0.0941432 -0.087062664 0.23524052 0.14249815 0.19684575
386 -0.7522046 -0.6475981 -0.49663186 -0.26535064 -0.87454313 0.03459207 0.32889798 -0.8951249 -0.25520185 -0.08228728 -0.20394626 -1.2878973 -0.3070395 -1.4178898 -0.15515915 0.38923654 0.6371308 -0.34600574 0.72505915 0.028630868 1.0081713 0.80348104 0.67150736 -0.11107313 -0.3677388 0.8992128 -1.176784 -0.5830845 0.1719262 -0.34666196 0.46629614 -0.76529074 -0.5614125 -0.16386968 -1.0770086 0.8093727 -0.003296755 0.49969304 -0.49220094 0.8365831 0.73002636 -0.025312258 0.32126918 -1.2084908 -0.21095589 -0.11927816 1.3182067 -0.8764735 -0.5325862 0.29661348 -0.555382 -0.080272034 0.5518241 0.88558066 1.1941745 0.42787173 -0.72013944 -0.4186816 -0.029566826 -0.11357503 1.4642056 -1.1495184 -0.5937646 0.3173322
401 -0.66650176 -0.6422286 -0.55257577 -0.28421333 -0.9224224 0.058992982 0.24984716 -1.0375249 -0.17185725 -0.20340827 -0.15772045 -1.2734213 -0.25242016 -1.4036592 -0.11386711 0.30619135 0.77908975 -0.26778793 0.65261984 0.020345097 1.0936928 0.85895234 0.496452 -0.3326046 -0.40402034 0.9370399 -1.2236142 -0.56181633 0.39671186 -0.4480349 0.6230399 -0.7029754 -0.6579058 -0.30800486 -1.0513802 0.82040435 -0.04518692 0.2867339 -0.49444163 0.7913531 0.63997114 -0.049881347 0.33077827 -1.1904289 -0.15984441 -0.093989395 1.397516 -0.98246557 -0.45165315 0.16103931 -0.34991863 -0.19856761 0.4931059 1.0199418 1.147876 0.38497403 -0.6591978 -0.28969613 -0.1733451 -0.23361453 1.5007818 -1.0741313 -0.593262 0.28612417
415 0.48787272 -0.13808458 0.33837375 0.28938854 0.3089626 -0.49247807 0.10852962 -0.16442482 -0.102687284 -0.11981142 0.23914309 -0.032263704 0.022226147 -0.19870497 -0.023797773 0.3105581 -0.40112683 -0.039548196 0.37453878 0.041566815 0.26721862 -0.07849527 0.025257042 -0.10746917 0.05598654 0.24440646 -0.4823031 0.1050923 0.22199439 0.2331317 0.022132635 -0.12794413 -0.16599639 0.13198026 0.026689397 0.1707644 0.124760106 0.060372602 -0.20610872 -0.117471494 -0.010225447 0.07944964 -0.09658101 -0.22923504 0.16298713 0.1678234 0.13826084 -0.11046163 0.14407049 0.2707248 0.09215023 0.027934425 0.031065753 -0.15609466 -0.15541658 -0.14580996 0.03660557 0.005839118 -0.20956467 -0.05828248 -0.048700307 -0.17629611 -0.30264753 0.052542813
455 0.21306589 0.05250165 0.5298769 0.06567476 0.0988518 0.32767227 0.04653285 -0.2469841 -0.23438376 -0.20117427 0.10938876 -0.19481364 -0.30378106 -0.3714948 0.36221668 0.40185347 -0.044353228 -0.059933472 0.7300262 -0.13495897 0.41846943 0.7272635 0.25639904 -0.13179249 -0.046494484 0.22291055 0.23546693 0.15053026 0.31672183 0.18631397 0.109003276 0.13551584 0.3885496 0.31296945 -0.20847884 -0.03664548 0.082997106 -0.20034175 -0.18414159 0.31235448 0.19475429 0.051262405 0.12368873 0.17701311 0.049442 0.2124301 -0.28487796 -0.2219153 -0.23660643 -0.1349986 0.088335395 0.10444476 -0.010142215 0.18008646 0.09199916 -0.049363665 0.10270968 -0.0057172333 0.09701695 0.09494014 -0.33877414 0.22042188 0.12023176 -0.17922895
393 -0.3996567 -0.5021333 -0.051132485 -0.024920851 -0.70080125 -1.0288966 0.33654895 -0.9008158 -0.39303344 -0.3711565 0.1848467 -0.5371414 -0.13754725 -0.9227546 -0.13110738 -0.035343032 0.3227855 -0.9215891 -0.1218865 0.6784088 0.5278395 0.7919671 0.7906804 -0.23157074 0.14331849 0.7331261 -0.22936557 0.16372626 0.054681838 -0.3077229 0.09811933 -0.70646787 -0.16447467 0.12018699 -0.5748918 0.16677807 -0.23214264 0.09255342 0.47978958 0.16451024 -0.051938955 -0.6588448 0.46859834 -0.0946541 0.21509467 -0.35585123 0.9325603 -0.32084313 0.6632713 0.4572132 -0.8004159 -0.32026488 -0.28061432 0.9682761 0.23430689 0.004985847 -0.34773502 -0.48612645 -0.1135502 0.6404475 0.28313577 -0.36625138 0.39715666 -0.5423636
421 0.0687948 0.05002604 0.42769462 -0.1729845 -0.0472474 -0.15976514 -0.035059243 -0.01376691 -0.10407427 -0.27011925 0.35325104 -0.036227852 -0.17288932 0.17864752 0.1974818 0.18063793 -0.4518112 -0.04284311 0.54732704 -0.07927352 0.33668715 0.37654167 0.20800982 -0.12125703 -0.052538734 -0.111919284 -0.22668338 -0.21434952 0.314188 -0.082856685 0.15103155 0.14605948 -0.077030316 0.13758804 0.25879058 0.13212441 0.23670167 -0.18693344 -0.22321223 -0.052427594 0.16164464 0.12430563 0.19138935 -0.098019995 0.15089963 -0.15090142 -0.0006729439 0.04895131 0.33936158 0.17797777 -0.1102468 0.13648584 0.29456934 -0.06875195 -0.024014652 -0.16059397 0.010466546 -0.023133736 -0.14216803 0.364707 0.14318351 -0.3021643 -0.33948618 0.3175749
458 0.2674993 0.09342955 0.27414018 0.007133499 0.17298304 -0.032119676 0.056439314 0.043895088 -0.24791811 -0.0968533 -0.34950525 -0.43074313 -0.1894547 -0.05158377 0.15937953 0.3892778 0.0006565367 -0.13695112 0.5389873 0.22474965 -0.22479622 -0.054925576 0.13397175 -0.12259594 0.22165984 0.0843118 0.070497185 -0.034149546 0.29942033 -0.130827 0.5913094 -0.2689386 -0.10930685 0.12949696 -0.23923726 -0.11545079 0.17908649 0.3187571 -0.4093208 0.023927651 0.17059523 -0.3706437 0.16358969 -0.24354915 0.039164405 0.15061772 -0.10234385 -0.14278938 0.18850383 0.017802134 -0.12775284 0.4079741 0.3569481 0.027251175 0.14224827 0.28311267 0.31644264 0.44900075 0.2859867 -0.09538721 0.04859283 -0.28498128 0.19639315 0.09093262
394 0.05250363 -0.0746708 0.244613 0.05746827 0.1018192 -0.2666312 -0.07958146 -0.18358937 -0.3063045 -0.12346372 0.02911786 -0.44367647 0.11854294 0.24130756 0.26263133 0.054453086 -0.2013079 0.14442809 0.0549351 0.3418339 0.3688787 0.061102994 0.09053863 -0.21615614 0.227248 0.03990531 0.116896 -0.032257985 0.02600296 0.28078014 0.09171875 0.009477423 -0.2525618 -0.15931608 -0.10220233 -0.0015492243 -0.3449464 0.0609141 -0.04392137 0.06390154 0.06942861 0.040893026 0.033720918 -0.05254166 -0.04830537 -0.03703016 0.22633511 -0.13417754 0.09885754 -0.24221379 0.54158884 -0.14082348 0.3482467 0.15603048 0.23458731 0.26188746 0.016026512 0.19413625 -0.268115 0.24156646 -0.02337998 -0.012794048 -0.041990206 0.022727648
476 -0.40766978 -0.42581195 0.005398165 -0.008434796 -0.6936352 -1.0293983 0.38526693 -0.87599486 -0.39742225 -0.39022484 0.1394688 -0.48913565 -0.10752053 -0.86947155 -0.08802971 0.034392152 0.31182727 -0.9014482 -0.096107066 0.78644156 0.50560486 0.8147227 0.77919734 -0.15340433 0.11222433 0.69388163 -0.22290978 0.11331461 0.030453734 -0.37214234 0.11708496 -0.6491239 -0.13076553 0.08547605 -0.63201845 0.2117244 -0.2804746 0.12042311 0.5283495 0.19007137 -0.077982 -0.55418605 0.49314448 -0.14941262 0.2718366 -0.3802546 0.96364444 -0.3292306 0.67709666 0.46935317 -0.8513567 -0.46186894 -0.26906353 1.005582 0.24378246 -0.039754156 -0.38365757 -0.49029654 -0.110368975 0.6116838 0.3111751 -0.34886727 0.32595325 -0.53031826
471 -0.18279769 -0.14522915 0.3211028 0.58074504 0.15989935 0.018286454 -0.02378494 0.037517197 -0.59630454 -0.13457279 0.26087424 -0.16231745 -0.31061652 0.13870013 -0.17581663 0.29161775 -0.13446057 -0.1608473 0.050718706 0.11676957 0.37771475 -0.07358866 0.28375617 0.08413843 0.060174905 -0.085974626 0.20139208 -0.07014457 -0.13297732 0.2728021 0.11370141 -0.3508528 -0.1046028 0.06456299 -0.19498166 -0.11068849 0.10117538 0.10826548 -0.045927446 -0.26476845 0.049918383 0.27097782 0.1622063 -0.05530622 0.018005377 -0.04062263 -0.0467534 -0.13407326 0.120166205 0.07481676 -0.090684034 0.1363817 0.35078517 -0.07119481 0.19911008 -0.17508441 0.24923518 0.10546847 -0.018814115 0.10008731 -0.11521051 0.045691703 0.0058464897 -0.061598748
488 0.033573944 -0.16260667 0.21996497 0.18745832 0.08415003 -0.08170695 0.10727263 0.13238958 -0.19847736 -0.011918352 0.092154644 -0.34904155 0.093825616 -0.07272446 -0.04225244 0.16022992 -0.30896077 0.114585996 0.27504334 0.017327191 0.09872827 0.17781872 0.0083878515 -0.43376055 0.17450689 0.07739809 0.101670116 -0.39934212 0.119646065 0.24450824 0.15333666 -0.05591629 -0.21173929 0.010857723 -0.14369102 0.038925394 -0.18613382 0.21655312 0.1306698 -0.20547014 0.027928555 0.16380148 -0.10470513 -0.25889516 -0.12994078 -0.09417154 0.13352552 -0.39157856 0.097051784 0.1429455 0.42626837 -0.20763758 0.4302722 -0.010961985 0.18496682 0.24028707 0.051661924 0.012040163 -0.1862257 0.12919071 0.034279354 0.059099045 0.32482934 0.19882731
489 0.18855342 -0.3790157 0.042514607 0.018819043 0.26620913 0.0038735138 0.051587526 0.13051783 -0.4595542 -0.10916988 -0.40624407 -0.23895185 -0.20819944 -0.058054414 0.19393285 0.33242178 -0.062167864 -0.02140452 0.35253477 0.019767903 0.30798703 0.18143891 0.104303315 -0.2720134 -0.07938708 0.06730293 -0.23559503 -0.112683706 0.08901636 -0.16552731 0.30664122 -0.23156685 0.22029723 -0.16418456 -0.5046803 -0.16053969 0.5863161 -0.15362178 -0.16609122 0.20450185 0.14668135 -0.4368049 0.0077883434 -0.1061192 -0.13801934 -0.032613877 0.22065398 0.0658594 -0.14474732 0.07911045 0.35162142 0.024491675 0.0868216 0.067986205 -0.15101893 -0.009581906 0.06933999 -0.10701568 0.09002804 0.043232426 -0.20109643 -0.01471569 0.0621409 -0.04166039
354 0.31190664 -0.1823303 -0.20299554 -0.02170215 0.20033014 0.042006534 0.09879289 0.1268458 -0.6617792 -0.06354749 -0.23997402 -0.2969937 -0.07372216 -0.02758225 0.287907 0.37685528 -0.017111791 -0.09236323 0.27338544 0.06745814 0.3529926 0.005904577 0.15072198 -0.26399866 0.03358151 0.054556962 -0.24970327 -0.20285259 0.1727219 -0.2920578 0.37199768 -0.034158394 0.2615659 -0.18924275 -0.6626589 -0.022522362 0.5469496 -0.15711203 -0.25076917 0.09337848 0.14858471 -0.2537494 0.028976554 -0.18386716 -0.07950758 0.27667725 0.19988652 -0.035499245 -0.041735828 0.20929025 0.20257927 0.05653572 0.059574325 0.0487005 0.047973145 0.055847906 -0.016466375 0.29343572 0.1838378 0.033126798 -0.15802008 0.048655845 0.12871884 -0.04613435
352 0.023299808 -0.034277372 0.15717913 0.18042174 0.10986155 -0.0009910904 -0.10898154 -0.101894185 -0.15045142 -0.123738416 0.11856309 -0.47923943 -0.16209772 -0.21507667 0.19843523 0.292759 0.08692322 0.10031319 0.3517163 0.29891345 0.15954803 0.18967956 0.12544306 -0.107230835 -0.084096335 -0.29797947 -0.3577864 -0.07022151 0.14221592 0.27582178 -0.07002854 0.35992092 -0.28294778 0.13177657 -0.015449065 0.051757075 -0.2184021 0.19261205 0.19861396 -0.31341472 -0.04932992 0.033135157 -0.106112525 0.31257144 -0.08539487 -0.23414338 0.19200039 -0.080949575 0.041967362 -0.054493953 0.32730976 -0.38512877 0.2994857 0.20583868 0.16221288 -0.18196249 0.3540803 0.3183822 -0.17017579 0.15716931 0.040774483 -0.12793246 -0.028547265 -0.07561042
396 0.21185358 -0.14478078 0.02552489 -0.14322981 0.11334352 -0.088638104 0.14051351 -0.15348764 -0.59142643 0.05088203 -0.29861557 -0.2713163 -0.17313218 -0.03457738 0.13960975 0.54546404 0.0150126275 0.13960166 0.51269287 -0.010335945 0.42139423 0.32651585 0.120394625 -0.07007352 -0.22224158 -0.0044105193 0.003956403 -0.2032214 -0.040566124 -0.23007098 0.37043926 -0.22601987 0.16761602 -0.12907901 -0.59834665 -0.20569398 0.39723784 -0.15374069 0.039456915 0.12889872 0.18908016 -0.2642842 -0.07683259 -0.03243512 0.11453286 0.08219011 0.11390351 -0.07500573 -0.089606896 0.008178396 0.23546155 0.144185 0.17370465 -0.23391962 -0.057529908 0.13118796 0.019381246 -0.051983595 0.1215806 0.013547822 -0.21498485 -0.11295948 0.23792808 0.058877416
389 -0.33031446 0.033629835 0.37366834 0.013953511 0.062639564 0.123200946 -0.0423079 0.13855655 -0.21597843 -0.6352151 0.21832345 -0.32783934 -0.90706515 0.027318604 -0.25348634 0.056067128 -0.12779488 0.1242293 0.32076976 0.3557729 -0.12575379 0.47135648 0.14914164 -0.24613251 0.36781427 0.0077618724 0.005961709 -0.081146374 0.2870105 -0.05594286 0.042048287 0.25636637 0.10665763 -0.22888567 -0.026838858 0.47183987 0.34758845 -0.28683975 -0.1131104 0.0029612498 0.653904 0.08980424 0.21686272 -0.28771636 0.19437629 0.24470803 0.16684856 -0.35612214 -0.07593017 0.14729257 -0.14787611 0.24586184 0.078255236 0.502882 0.1786914 -0.03587144 0.23489925 0.10629106 0.012265197 0.09595081 0.022284247 -0.2266803 0.17349151 -0.19157198
457 -0.33624944 -0.115982875 0.4329723 0.007553896 0.19225648 0.11221464 0.24488817 0.17115375 -0.2501538 -0.6128887 0.3053917 -0.21577497 -0.80041724 0.05922068 -0.18601108 0.09915958 -0.06900571 0.17949444 0.44743234 0.22188573 -0.18968205 0.41145086 0.20751368 -0.22359478 0.1537728 0.12252597 -0.13877946 0.08542048 0.47661912 0.04200104 -0.08092654 0.2631385 0.18499646 -0.1927842 -0.057394765 0.23637089 0.31781715 -0.24731335 -0.030702615 -0.10225558 0.38907084 0.18140584 0.23632087 -0.25994954 0.36054334 0.23989199 0.17616175 -0.5916421 -0.09072352 0.12236847 -0.29085657 0.47397396 0.035367765 0.5098974 0.1155064 0.26598856 0.034027927 0.4675253 -0.26371455 0.09468178 0.111250184 -0.014274623 -0.03640439 -0.29771647
495 0.25992802 -0.34049952 0.2709125 0.17042437 0.012834744 -0.34529427 -0.055859134 -0.10436401 -0.0356663 -0.25158784 0.25192836 -0.29739815 0.0007860553 -0.16317713 0.08456147 0.3642111 -0.28513253 -0.037883174 0.41167754 -0.20453869 0.53309536 -0.04564075 0.18258701 -0.17745562 0.22406092 0.118797764 0.09213999 -0.12557413 0.1061504 0.052871987 -0.04621146 -0.017959177 -0.15487304 -0.14405794 0.14713067 0.10781002 0.05088783 0.28706554 -0.080658756 -0.1400498 0.14488776 -0.23690315 -0.15505672 -0.15419592 0.09119386 0.2466224 0.038532965 0.044289738 0.2295835 0.099031955 0.24087143 -0.14897695 -0.10560724 -0.25486523 0.07610376 -0.1445096 0.21978156 0.20883511 -0.13831058 0.23940675 0.12377688 0.040780906 -0.2736224 0.14692055
413 0.37226924 -0.11276447 0.3671196 0.17474394 0.29173076 -0.020171795 -0.026459266 -0.208547 -0.027217474 -0.40551287 -0.017812293 -0.17482732 -0.1416955 -0.019977042 -0.041572727 0.43396693 -0.52841175 0.0071605514 0.24537474 0.05083712 0.18538122 -0.23961768 0.24864046 -0.23102602 0.043968853 0.23691033 -0.30300072 -0.14929257 0.05479542 0.010630238 -0.2692 -0.36924487 -0.11906086 0.12267919 -0.30407068 0.0120382635 0.20367731 0.35212636 0.028894668 -0.25078568 0.14956535 0.15960312 -0.3003958 -0.271903 0.23048583 0.018529268 0.25842246 0.10258639 0.24177031 0.11446182 -0.12922974 -0.01550052 -0.020533094 -0.34150234 0.16657752 -0.06728772 0.030315721 0.009243851 -0.21155967 0.2085591 -0.034949407 -0.14687009 -0.37567842 0.010691192
351 -0.5450677 -0.5778234 -0.044303425 -0.18549019 -0.831754 -1.0418185 0.40581223 -0.8306333 -0.57524836 -0.50262296 0.124748096 -0.1484852 -0.1485855 -0.973252 -0.2461885 0.22878592 0.10919711 -0.8620272 -0.052903004 0.664724 0.46981812 0.7612505 0.58967155 -0.2816601 0.31793413 0.5010769 -0.2341567 -0.078559786 0.058095034 -0.64991856 0.17957011 -0.5020967 0.0011043411 0.39849234 -0.6485095 0.1547921 -0.46463865 0.07584986 0.32903457 -0.013211306 -0.29984018 -0.63529634 0.43887413 -0.20667782 0.20330226 -0.2551858 1.0949541 -0.5420346 0.7916803 0.6986086 -0.7485102 -0.40736547 -0.17333564 0.78789574 0.3879926 0.03905133 -0.1538859 -0.6458471 0.022149803 0.63377964 0.30083692 -0.4310707 0.251361 -0.662538
420 -0.1828944 0.011841712 0.4025262 0.64980614 -0.09154935 -0.22797187 -0.112665646 0.09601111 -0.4584352 -0.11421531 -0.085453644 -0.24473034 -0.025444526 0.04242723 -0.10209554 0.22603157 -0.16789734 0.0548937 0.031356514 0.045765087 0.19265507 0.11394017 0.032230277 -0.1126878 -0.07350414 0.19536498 -0.048433624 0.11397234 -0.235099 0.21645914 0.06876111 -0.01853317 0.059635818 0.22836618 -0.06819782 -0.00866149 0.19676852 0.3314695 -0.17771362 -0.15281504 0.34581774 0.31589544 0.2921533 0.1715094 0.14470458 0.07297358 -0.0019342431 -0.16960694 0.15050249 0.11398848 -0.053571124 0.12422015 0.2820648 0.23817979 -0.059757005 -0.01301545 0.21423823 0.29867083 -0.07063232 0.09914233 0.09407777 -0.1720756 -0.15093386 0.12179733
474 0.1959754 -0.09777225 -0.005613086 0.012276578 0.027838768 -0.18522458 0.09088204 0.0478104 -0.7075641 -0.11353055 -0.11568165 -0.20943573 -0.027513847 -0.050738942 0.09939962 0.37797883 0.2967157 0.25416693 0.3649845 -0.059215825 0.32532513 0.40771133 0.26985624 -0.07151086 -0.06349942 -0.07558197 -0.13293009 -0.17236272 0.051631022 -0.17380619 0.5295608 -0.13540229 0.3329124 -0.16308028 -0.5987165 -0.22264683 0.563924 -0.039556947 -0.022703623 0.21224898 0.053268876 -0.21972664 -0.16704619 -0.039876882 0.14347284 0.12317558 0.08352107 -0.051615924 0.06627731 -0.027127665 0.32837692 0.049517393 0.13693316 -0.2000919 0.01073475 0.023526585 0.034607098 -0.24278033 0.09889959 0.00555106 -0.4633733 -0.05866224 0.14378162 -0.05373124
469 -0.3519273 0.039014023 0.23492177 -0.06549407 -0.009856204 -0.07291556 0.39561015 0.21906126 -0.21357714 -0.737192 0.050620724 -0.30032519 -0.65888566 0.086871326 -0.35070607 0.087418385 -0.32584965 0.12218799 0.3009224 0.32197264 -0.14802009 0.37080434 0.19071195 -0.19619834 0.0786117 0.21805203 -0.10724311 0.14138047 0.1810588 -0.07226654 -0.14299987 -0.040459882 0.31037593 -0.24272868 -0.04553286 0.16260493 0.48650327 -0.28545618 -0.28523165 -0.22009781 0.4739883 0.037763234 0.0370056 -0.1062618 0.13754243 0.39157212 0.064947434 -0.32909542 -0.024247928 0.029935528 -0.11695089 0.06247021 0.21196045 0.454822 0.063619904 -0.05771605 0.24823421 0.37441158 0.033493765 0.091186136 0.14315368 -0.11994081 0.1814127 0.15100446
446 0.1386658 -0.12630114 0.15646085 -0.0929566 -0.045696188 -0.27699175 -0.30477706 -0.050143864 -0.28070667 -0.30735132 -0.3282747 -0.2016476 0.08777864 -0.124882154 0.17716992 0.2749606 0.0166369 0.39854592 0.31997147 0.33228925 0.37824482 -0.059813786 0.17933172 -0.19662687 0.19599305 -0.08742694 0.13516364 -0.06032701 0.12218286 0.29791883 0.06361974 -0.14400849 -0.28237036 0.16966984 -0.051740594 -0.27406982 0.1001599 0.00926723 0.043021653 0.09003283 -0.12807687 0.056365296 0.26477647 -0.10963767 -0.0051737307 0.17690128 -0.028115563 -0.14213488 0.41291398 -0.09737669 0.09965427 0.10451698 0.21221615 0.15136652 0.07892633 0.4149129 0.40258667 -0.01248117 0.1368392 0.11753972 0.30212718 0.17189851 -0.17985655 0.19959177
450 0.2376102 -0.55537236 0.09066533 0.061407376 0.20049457 -0.18088093 -0.04290821 -0.056138624 -0.72688586 0.015439022 -0.33572665 -0.15283869 -0.035937876 0.19402754 0.27175134 -0.016701708 0.23576857 -0.036433063 0.4056215 0.10169732 0.38007486 0.07633784 0.26061437 -0.10053068 -0.20145339 -0.0035777525 -0.29721603 -0.3501707 0.086486176 -0.19176449 0.2542247 -0.33113426 0.16372605 0.05807232 -0.19837822 -0.006565862 0.35218188 -0.10103759 -0.08400234 0.19443998 0.26124904 -0.1640756 -0.25782737 -0.31048584 -0.20260261 0.1907971 0.159979 0.13355239 -0.004563253 0.06765326 0.054880176 0.18042861 0.5741939 -0.021521203 -0.21310633 -0.14498904 0.17785758 -0.0026243795 0.0728034 0.013798 -0.107239 0.119175375 0.022571305 -0.32470846
361 0.23929393 -0.07095728 -0.09756669 0.015533301 0.15598124 -0.24299204 -0.2645838 -0.11299097 -0.6262119 0.035125025 -0.18893649 -0.37934163 -0.0071058813 0.01402941 0.1743003 0.47552985 0.013251713 -0.2153921 0.3794124 0.23067668 0.34343562 0.12930149 0.12798356 -0.34859204 -0.18199176 -0.006565323 -0.17221944 -0.21822302 0.10942123 -0.44193658 0.18627897 -0.1146378 0.18658437 -0.1356946 -0.4695831 -0.34811068 0.5794808 0.04572532 -0.20883533 0.27100587 0.055913936 -0.23717225 -0.20697245 0.065144576 -0.025220618 0.098536074 0.25178877 -0.12686194 -0.26755008 0.1437862 0.22776403 0.3530525 0.124773785 -0.13744333 -0.1054964 0.09442861 0.021238495 0.034207046 -0.011194421 -0.07646477 -0.10668984 0.057443846 0.13140848 -0.10230547
494 -0.14594118 -0.1104766 0.055971064 0.16046548 -0.11651552 -0.23418172 -0.103008874 0.06389993 -0.12530477 0.20727456 0.12996194 -0.36470136 -0.18935871 -0.2936612 0.37116766 0.32916087 -0.17771019 0.2652131 0.422067 0.25041682 0.033706285 0.2240102 0.099636406 0.048940767 -0.19170341 -0.13171531 -0.43457794 0.08085378 -0.015586413 0.38064024 -0.22603965 0.1631887 -0.20645045 0.108477324 0.13736005 0.12454153 0.11324342 0.18952744 -0.063723944 -0.32106736 -0.21296199 0.03369355 -0.1272157 0.2816129 0.035767756 -0.08812799 0.39744195 0.06020467 -0.027913865 0.08824078 0.25297594 -0.30029136 0.37916106 0.09413675 0.40363693 -0.1458162 0.41715148 0.2536263 0.03133113 0.2704787 -0.024455732 -0.16305761 0.09762765 -0.18864293
462 -0.021340497 -0.13898166 -0.098069295 0.1430333 0.21162067 -0.15026876 -0.23989491 0.08144915 -0.10064079 -0.12074568 0.12281146 -0.5796227 0.066390105 -0.16802187 0.39442712 0.047403794 -0.17463964 0.06390046 0.05635765 0.17931387 0.1605859 -0.030537786 0.20415673 0.40421334 0.2800664 -0.2117201 -0.58069175 -0.3284272 0.18617289 0.40352246 0.19476034 0.056019444 -0.20537972 0.36027166 -0.07139755 0.0313342 0.4131773 -0.04620756 0.01820621 -0.1855567 -0.19509335 0.18522678 0.07404531 0.33140662 0.046704248 -0.19148624 0.16867024 -0.33080643 -0.1581434 -0.19196339 0.20097888 -0.2225792 0.40646172 0.3604359 0.19350304 -0.0986201 0.29639813 0.18532597 -0.38971096 0.4150301 0.19904141 -0.19121037 -0.11662705 -0.22835782
362 0.41395634 -0.29229093 0.11274434 0.20505172 0.32985687 -0.18479848 -0.25654373 -0.29458344 -0.26132557 -0.14033875 0.28605765 0.01074453 0.30578792 -0.12905416 0.2209336 0.26258036 -0.35380018 0.23751946 0.4202886 0.30261794 0.38825187 0.09429922 -0.021954786 0.037181273 0.29184985 0.12208537 -0.28448853 -0.03425808 0.26819685 -0.04589064 -0.19394583 -0.15793532 -0.3009626 -0.09715121 -0.13429359 0.22627054 0.19350784 0.42448723 -0.03838361 0.0054492233 0.3085834 -0.053619105 -0.34764364 -0.15995672 0.24952102 0.2770235 0.14018582 -0.24954945 0.39288867 -0.048427638 -0.046039212 -0.16237408 -0.122306965 -0.124342225 0.048395086 -0.29711637 0.41086525 0.08580538 0.20061922 -0.17038079 0.05862002 0.030571926 -0.025396004 0.14836805
425 -0.008742853 -0.5077049 0.09389227 0.2613413 0.20469838 -0.055315144 -0.26126447 -0.081193276 -0.42889884 0.08729283 0.15562408 -0.50231946 -0.20087928 -0.2778361 0.08323671 0.27304447 -0.25853908 0.081872895 0.09632561 0.1804472 -0.36926064 0.3871136 0.13215466 -0.3539146 -0.032924224 -0.2596526 -0.114179574 -0.11796516 0.26036167 -0.03820667 -0.108839415 -0.16612153 -0.029356701 -0.050981145 0.10744138 0.17629032 0.079617225 -0.18115814 -0.10477534 -0.18092358 0.2234897 -0.10815722 0.049421232 -0.22789182 0.32838598 -0.39340597 -0.029194303 -0.030547274 0.49825957 -0.261498 0.021708693 -0.075119376 -0.019462971 -0.08433529 0.34777135 0.20312425 0.1086548 0.24603014 -0.3535784 -0.20705314 -0.18814227 0.060199246 -0.6468613 0.22537512
486 -0.6152028 -0.08806176 0.31764212 -0.048446085 0.19374599 -0.11677035 0.10099585 0.10258957 -0.20278329 -0.59292966 0.3999513 -0.39374843 -0.9454517 -0.061184756 -0.3211033 0.15916747 -0.13662116 0.056601156 0.39151245 0.3972112 -0.15341212 0.38709095 0.13227122 -0.071590535 0.24168333 0.13148142 0.06822476 0.03872787 0.32799992 -0.19279987 -0.004376836 0.16274634 0.11778697 -0.14515117 -0.025082275 0.49597383 0.35278594 -0.35198665 -0.10495106 -0.09646266 0.43962127 0.2340732 0.121682994 -0.33175638 0.16525958 0.17005916 -0.009072158 -0.48662734 -0.24330454 0.038758826 -0.090484135 0.34887093 0.048838355 0.52261126 0.034696743 0.17784427 0.26050282 0.13443053 -0.15278834 0.15411443 0.11565431 -0.121300414 0.15924728 -0.044079136
424 -0.5632878 0.085108295 0.42496505 0.08919426 0.0366951 0.029688362 0.07529677 0.0064775115 -0.0859199 -0.5823771 0.3017037 -0.54929394 -0.9569495 0.08916419 -0.24524727 0.13498017 -0.13585314 0.17618851 0.2796019 0.4184452 -0.13631909 0.42233995 0.16965847 -0.1407897 0.20013838 0.10340972 -0.03115571 -0.008218934 0.35787013 -4.5035435e-05 -0.07689434 0.12979479 0.21872744 -0.21238558 0.010057552 0.3844073 0.5284766 -0.2333124 -0.012852896 -0.077739246 0.4953806 0.022215271 0.045198243 -0.27311748 0.13194305 0.27796105 -0.08518884 -0.55754346 -0.040118787 0.100642234 -0.114726804 0.17374344 0.09902952 0.49151224 0.123858206 0.05212815 0.093110204 0.091228634 0.037693303 -0.045045387 0.16064015 -0.20265588 0.15711671 -0.34636423
357 -0.3701817 -0.12811124 0.3513298 0.058960855 0.05617696 0.07853969 0.097325504 0.15538952 -0.070249826 -0.4818552 0.1331253 -0.26921812 -0.84002876 -0.019966155 -0.23346643 0.22225972 -0.19145873 0.22368361 0.28754476 0.3473928 -0.14655802 0.42899024 0.2798283 -0.2205279 0.11183509 0.17504354 0.019889742 -0.11944814 0.22365637 -0.23991512 0.14807108 0.10064109 0.18549988 -0.19377463 0.17246498 0.24869551 0.35619953 -0.29706758 -0.033977784 -0.12302077 0.5576677 -0.040618576 0.24540332 -0.28800026 0.28878534 0.27166882 0.051357683 -0.35335693 -0.15105891 0.14423466 -0.28009462 0.32545844 0.3487286 0.4448542 0.022258705 0.31809404 0.13893676 0.3201287 -0.26068926 0.103776485 -0.039584726 -0.055872664 -0.14988312 -0.2649784
416 0.12923265 0.0032291478 0.113308966 0.31132618 -0.0700421 -0.027951833 -0.029546738 -0.086282 -0.1118521 -0.14543344 -0.083248824 -0.10013437 -0.42934892 -0.17533328 0.2413278 0.33294865 0.03957677 0.24559753 0.11163945 0.059357297 0.17640467 0.35144097 0.45565724 0.098042585 0.108629644 0.14597371 0.009783253 0.036953174 -0.12938443 0.29038063 -0.14152011 -0.27501714 -0.15794557 -0.043749508 0.031165248 0.26406938 0.4696973 0.13311319 -0.1892458 -0.3518362 0.097020425 0.06978345 0.12503296 0.35425326 -0.17653365 -0.2632054 0.07880946 -0.1381393 0.05988634 0.11140943 0.5206501 0.13632093 0.15633364 0.11717926 -0.041733053 -0.30137283 0.32435024 0.17896701 -0.3310629 0.03556644 0.3629255 -0.15758851 0.13090454 0.097813815
375 -0.062101696 -0.013199966 0.18962166 0.13051789 -0.014487901 -0.25403342 -0.006875875 0.061780374 -0.072978094 -0.061738156 0.18580112 -0.35219437 -0.1255229 -0.07230674 0.37928343 0.27007365 -0.2418789 -0.028747898 0.13276108 0.29582518 0.2108723 0.109197125 0.23305985 0.14611942 -0.26438764 -0.25359216 -0.406301 -0.13190728 0.013869172 0.20508292 0.10380866 0.20118068 -0.41772628 0.11272856 -0.12399872 0.13106883 0.010583008 0.20742229 0.07569022 -0.12782861 -0.18320648 0.11243343 -0.10974545 0.19712764 0.04451433 -0.39892548 0.23849677 -0.047375232 0.13283584 -0.09380831 0.46434808 -0.1605694 0.15452053 0.2420727 0.28344685 -0.07396862 0.4451115 0.32644668 -0.36075422 0.13744585 -0.08695754 -0.18702987 -0.16823521 -0.050204333
451 -0.13087541 0.025516512 0.25097033 0.6981383 0.09959097 -0.1856247 -0.1717334 0.14832157 -0.60600847 -0.20172146 -0.092659004 -0.11645042 -0.088917084 -0.20104614 -0.037333205 0.30425107 -0.34308967 -0.051012866 0.20443568 -0.1256269 -0.031372096 0.27824977 0.10848542 -0.13223729 -0.13022447 -0.16324943 0.07697481 -0.039544445 -0.15573357 0.4314693 0.044552837 -0.09051962 -0.24671547 -0.015075921 -0.2049908 -0.116160996 0.15169656 0.06272465 -0.2639627 -0.28222018 0.1562696 0.19380273 0.048029076 -0.12816457 0.2587997 -0.10407682 0.008848372 -0.06697343 0.11841338 0.07870611 -0.12675814 0.11945257 0.15503791 0.19032826 -0.0455353 -0.3364303 0.032243658 0.15303652 -0.41635507 -0.13888471 0.39120066 -0.12402405 -0.014005076 0.07876919
437 -0.064504184 -0.41537791 -0.22551036 0.33189157 0.29531226 -0.19964416 -0.045452595 -0.03564219 -0.12816854 -0.14165713 0.10573336 -0.5963051 0.18291989 -0.022367803 0.32428074 0.65811765 0.031500846 0.11207193 0.2976826 0.34227636 0.13776521 0.009279786 -0.037971616 0.16031061 0.63540447 0.34421214 -0.8248375 -0.20731361 0.23169708 -0.16042377 -0.063708745 -0.095905095 -0.11594954 -0.05800052 -0.34546882 -0.40640956 0.14619711 -0.47837454 -0.44780242 -0.18878451 -0.24198233 -0.061769642 0.059242554 0.572425 -0.0776932 0.26451194 0.2248324 -0.12616047 0.06611307 -0.04987055 -0.23467477 -0.37534383 0.8947779 -0.010924831 0.12295891 -0.5167158 -0.15815665 -0.16335791 -0.34792268 0.3637843 0.2952048 -0.35884577 -0.29569542 -0.42613295
453 -0.03750092 -0.9852317 -0.3098157 0.626994 0.24530041 -0.34363046 0.08245995 -0.1456845 -0.053790934 -0.29243764 0.0035207653 -0.94921964 0.32957086 -0.40592343 0.621323 0.42574933 -0.08612545 0.175501 0.104329854 0.4450253 0.3604345 -0.017643983 -0.058545787 0.24555466 0.82592297 0.36688927 -0.6462258 -0.57307273 0.15882204 -0.054914072 -0.09188332 -0.04742848 -0.2092792 0.23753925 -0.5676509 -0.1152669 -0.023800677 -0.5608891 -0.62134236 -0.07798254 -0.346951 -0.25597182 0.30535913 0.56832767 0.28059074 0.06858826 0.27696192 -0.27016369 -0.10882824 0.12849846 -0.16386826 -0.4521928 0.71281266 0.024429236 -0.010374808 -0.3419773 -0.17329445 -0.26379666 -0.21054955 0.5236168 0.44173485 -0.3739657 -0.28581008 -0.5260514
403 0.11761744 0.17383325 -0.19425981 0.0050057243 0.053635616 -0.10522174 0.12973826 0.094989896 -0.47547513 0.010978824 -0.28031835 -0.43600535 -0.19196305 -0.03348323 0.40483698 0.24826285 0.2600554 -0.050330617 0.5006323 -0.1279333 0.2342188 0.17559606 0.17472297 -0.2482841 0.04767367 0.17566475 -0.23919256 -0.25421575 0.107186876 -0.14630002 0.58153605 -0.23949146 0.27206331 -0.16302171 -0.43364802 -0.17722853 0.59929085 0.106454186 -0.044746663 -0.03812392 0.13926846 -0.3536499 -0.16219409 -0.0022640135 0.19710447 0.3074448 0.23820716 -0.005113202 0.21675608 0.22120488 0.43179566 0.11148662 0.17010024 0.019302873 0.008965104 0.16302565 -0.02926738 0.005821027 0.046860293 -0.09054453 -0.28398344 0.19868438 0.08954317 0.13246134
350 -0.2191692 0.022339182 0.11467221 0.31480324 -0.07168595 0.21565506 0.14958747 0.06496826 -0.0037252752 -0.18715978 0.18122481 -0.09610588 -0.812001 -0.26065156 0.041365493 0.5172886 -0.39017886 0.022243371 0.21447046 0.3517987 0.3707534 0.7124428 0.16935907 -0.10983345 -0.007038035 0.07897995 0.1281031 -0.056758974 0.4622361 -0.041198637 0.25227317 -0.01685166 0.23125511 0.39607322 -0.22904372 0.22167829 0.0037039544 0.028122606 -0.23029177 0.30823493 0.18467744 0.47099856 0.39198145 -0.056116425 -0.13245887 0.59728223 -0.14665337 0.12257656 0.0048329765 -0.14297068 0.093499035 0.16625005 0.09142336 0.22396311 0.6068143 0.10292205 0.122922674 0.17189851 0.14044008 -0.19246727 -0.15333448 0.20149787 0.0051806294 -0.14595687
418 0.118604116 0.10245777 0.06062967 0.20763534 0.24823387 0.040501803 -0.6313003 -0.07076188 -0.37166026 0.22314163 0.15832579 -0.10221225 -0.20877865 0.029407527 0.020697402 0.52196026 -0.15132725 -0.03437663 0.17116475 -0.09416023 0.28753284 0.35571828 0.111070074 -0.34061858 0.112929605 0.05795424 -0.2934318 -0.10513459 -0.25380227 -0.17985204 -0.08823168 0.19784515 0.17390597 0.018666549 -0.45706934 -0.065948434 0.40363103 0.28238267 -0.23596227 0.13661835 0.14620264 -0.091894895 0.18671896 -0.081438616 0.08639109 0.12651925 0.1148108 -0.16860792 0.026140723 0.22180694 0.11623075 0.021152843 0.42414215 -0.011433586 -0.20974588 0.23921692 -0.0350684 0.18237211 -0.28295282 0.1567035 0.18100072 0.13043949 0.025302924 -0.119869344
440 0.057790127 -0.059082236 0.029602392 0.19052672 -0.15525797 -0.16881631 0.23958312 0.17345141 -0.025544053 -0.076384984 0.22058229 0.025518538 -0.2353497 -0.11800937 0.27860475 0.44565693 -0.09870383 0.29902297 0.12128287 0.38397872 0.04408148 0.036952328 0.3980827 -0.4216826 -0.016338885 -0.1884881 -0.22288336 0.078625955 -0.21320134 -0.04961163 0.43742183 0.3860379 -0.5428804 0.26058015 -0.009224915 -0.05209616 0.20685673 0.07539067 0.2466964 -0.19294322 0.089081496 0.056759097 0.11668875 -0.36242178 -0.028463867 -0.07530666 0.058150224 -0.25142178 0.05806755 -0.24848904 0.43813264 -0.3224552 0.3356759 0.20376325 0.18970282 -0.19522093 0.3669935 0.085450366 -0.1571103 -0.046711657 0.046027653 -0.30555716 -0.20778246 -0.19785714
470 0.06598854 0.23858045 -0.0057602655 0.09368112 0.2665243 -0.06428974 0.14849573 0.09627057 -0.5960645 0.038199857 -0.31494096 -0.37174472 -0.23766601 0.039162606 0.2526239 0.28372672 0.16660027 -0.106582806 0.5220437 -0.0070159645 0.28495443 0.033716235 0.19810282 -0.2676384 0.11718183 0.034699634 -0.3303571 -0.22365224 0.21216612 -0.17360482 0.7162393 -0.10840176 0.2257024 -0.12624373 -0.54735553 0.024922939 0.5998237 -0.1605277 -0.02757979 -0.06424632 0.04934721 -0.5012262 -0.17600147 -0.0754795 0.035919487 0.14550453 0.16837934 0.060528263 0.056646723 0.27272516 0.31870466 -0.17602113 -0.08735462 0.17907369 -0.09911661 0.15127435 -0.07170399 0.07178438 0.3245416 0.19717593 -0.4357038 0.1608478 -0.015403512 0.036365617
490 0.24858846 -0.025135253 0.3717589 0.19608007 0.021822175 -0.0778168 -0.08824263 0.15416501 -0.15005898 -0.37613317 -0.059532043 -0.35636243 -0.30287978 -0.09732447 0.40139818 0.12135593 -0.11460835 0.21803138 0.5017606 -0.07022319 -0.00043776233 0.06577564 -0.017477423 -0.20633301 0.14002943 -0.023450539 0.022841321 0.1124263 0.29485673 -0.06886797 0.116707884 -0.63112503 0.14021558 0.44582182 -0.32111308 -0.2871383 -0.016982157 -0.08023847 -0.13948824 0.059599217 -0.023936864 -0.36334124 0.36770707 -0.02236169 -0.23825699 0.26672488 0.16649422 -0.18199985 0.12067841 -0.26887742 0.10830922 0.02241965 0.2344103 0.20290846 0.27346864 0.3598043 0.53140557 -0.39948848 0.14711563 0.066258065 -0.10168746 0.24149834 0.20199448 0.5083906
381 -0.4012141 0.029288488 0.3192164 -0.11376926 0.0044968775 -0.05285429 0.11566918 0.040249236 -0.08821624 -0.5371866 0.41545707 -0.39277387 -0.9071445 0.0010735282 -0.14133286 0.111079186 -0.30995518 0.14280108 0.44680896 0.3534046 -0.15584175 0.33675376 0.2469366 -0.1309508 0.18397747 0.1649285 0.06825702 -0.086421415 0.2762635 -0.20317098 0.12633842 -0.09871948 0.18163513 -0.2312624 0.33451083 0.2560664 0.38695362 -0.3468773 -0.13602951 -0.124912195 0.40708745 0.16331291 -0.029436514 -0.24010128 0.1649629 0.36935207 -0.048051484 -0.33040667 -0.2754825 0.26482415 -0.052462745 0.27505657 0.31459895 0.643423 0.2047327 0.020536534 0.052275795 0.18406229 -0.1420141 -0.07930472 0.19189024 -0.12626308 0.2135999 -0.37655568
426 0.02289192 0.049445298 0.39220968 0.47847393 -0.07703438 0.11701296 0.007893506 -0.20881623 -0.12533717 -0.25681677 -0.06979972 -0.13009149 -0.25551426 0.15798445 0.10265998 0.36919513 -0.3745931 -0.038811967 -0.0049812314 0.011573038 0.45585817 0.4858105 0.08846614 -0.09449565 -0.09532008 -0.07806433 0.20525523 0.124796115 0.5877065 -0.045410518 0.4352778 0.2922257 0.31697235 0.30780205 -0.44505396 -0.08910764 -0.07397561 0.08937743 -0.057998963 -0.12570201 0.08474301 -0.10288077 0.026479103 -0.014388462 -0.09717343 0.42244014 -0.1525438 0.114716 -0.25670996 0.15581322 -0.20420963 0.20600285 0.3279884 0.34256232 0.59804237 -0.06196371 0.49554142 -0.03465302 -0.2094 0.022219852 0.137663 0.19081889 -0.027763253 0.08047652
407 -0.30191332 0.31010616 0.12875414 0.1453764 -0.006055822 0.20971482 0.22891894 -0.06173869 -0.07252939 -0.23531234 -0.095028564 -0.06076049 -0.49709472 -0.18197434 0.3970708 0.2800896 -0.2767258 -0.4019342 0.61215866 0.28706154 0.518316 0.40526664 0.33211818 -0.19431813 0.18150611 0.08468897 0.4265665 0.10136146 0.792288 0.16244452 0.013241049 -0.18229057 0.31876397 0.20030817 -0.37057224 0.1225387 0.11202478 -0.12973993 -0.20667812 0.030991629 0.0056538065 0.3013956 0.23342954 -0.29106554 -0.12389884 0.62127036 -0.10694519 -0.13798346 0.0740565 -0.27922913 -0.2056985 -0.027678557 0.340342 0.4368762 -0.00032971648 0.15473478 0.47117305 -0.01523258 -0.04673227 -0.21963976 -0.337733 0.25386843 0.0027816158 0.25868118
410 0.3757164 -0.065383665 0.16852635 -0.16739914 0.18024914 0.048438825 -0.05690499 0.057041593 -0.753346 -0.25485167 0.20759708 -0.2674139 0.05374294 -0.19024022 0.6529923 0.45502353 0.034440566 0.007508796 0.13041124 0.08181138 0.35952607 0.1899947 -0.078093186 -0.38272876 -0.10545914 0.32819265 -0.18487138 -0.31456405 0.108200684 -0.042836424 0.5650605 0.1365525 0.0784515 0.08150695 -0.40727487 -0.40996638 0.53746915 -0.1911355 -0.26910722 -0.116802335 -0.0027349624 0.033814 -0.4336871 -0.039551493 -0.013896334 0.09457707 0.072409384 0.03086766 0.11980058 0.0006662879 -0.036901955 0.2420871 -0.04302687 0.0118715735 -0.10019607 0.032126676 -0.14271973 -0.46341065 0.18990697 0.17430165 -0.10888954 0.10131332 0.00030304052 -0.23656538
477 -0.3115572 -0.07452197 0.34133494 0.15628053 0.24946365 0.19466123 0.20800723 0.20190836 -0.4218188 -0.5061656 0.40158692 -0.19583051 -0.57902074 -0.059558716 -0.055926196 0.13539551 0.01316052 0.28575027 0.1849756 0.33544695 -0.21849553 0.40460485 -0.060663454 -0.17099716 0.1053039 0.11166837 0.08322424 -0.5209012 0.383711 -0.1470588 -0.05731952 0.11432441 0.49878135 -0.21261139 0.047099814 -0.14422493 0.27303502 0.26782167 -0.23844482 0.11247942 0.48236233 -0.115906164 0.3882794 -0.29924574 0.29807156 -0.1912397 0.20380965 0.042165466 -0.02159068 0.09055523 -0.3744791 -0.039397504 0.009723823 0.42168796 0.115507126 0.11022823 0.577544 0.46765256 -0.31629592 -0.19940555 0.092697755 -0.22080205 -0.35046223 -0.021762801
491 0.054027554 -0.051313058 0.40748706 0.018599404 -0.06810787 0.049910743 0.063300796 -0.23940098 -0.34619895 -0.19416708 -0.37491095 -0.34129676 0.017439269 0.06368955 0.38900843 0.3249073 0.021054536 0.14098868 0.2160361 0.06559444 0.12013168 -0.11586836 0.23414756 -0.30933762 0.33954394 -0.2814991 -0.0073594768 0.08412317 0.28703073 0.18125834 0.17377831 -0.5082931 -0.21046366 0.0379786 -0.2301137 -0.21215577 0.26688376 -0.17422508 -0.059990216 0.3577261 0.14327466 0.017178552 0.20992592 0.19011295 0.085568026 0.15728527 0.25339636 -0.21858639 0.23832433 0.24225725 0.22117622 0.009333695 0.3616121 -0.06795038 0.041106682 0.41936094 0.42020136 -0.42178765 0.07148199 -0.07395999 -0.13964611 0.31694663 -0.013563725 0.20152181
427 0.04485626 -0.13705236 -0.076262794 -0.020265225 0.11843367 -0.51688164 0.18708159 -0.4105773 -0.37388223 -0.08904832 0.22019488 -0.26465255 0.060173128 0.014694475 0.081897266 0.50652593 0.0013426598 0.07837735 0.1544972 0.36129573 -0.1829744 0.6550705 0.12281103 -0.15073636 0.116508394 -0.09184228 0.0120837325 -0.24259467 0.20951985 0.02427697 0.14694712 -0.3265789 -0.2187286 0.2321516 0.1264066 0.002462583 0.037121456 0.41060677 -0.5408912 -0.30269033 0.43624544 0.19321649 0.3808793 -0.35933572 -0.42311582 -0.10957872 -0.2952939 0.0012883848 -0.08658075 0.06730733 0.23444605 -0.53136814 -0.17293474 -0.019230364 0.47527277 0.1789206 -0.16740654 0.10053149 -0.4055155 -0.28597945 -0.14064403 0.521742 -0.50928736 -0.07355353
372 0.3916561 -0.3082714 0.55932206 -0.0077574844 -0.19641621 0.066442885 0.2892638 -0.10282428 -0.35383657 -0.1670723 0.27929446 -0.16123925 -0.06699457 -0.13052773 0.23861279 0.5202386 -0.01977134 0.17209521 0.53726166 -0.025734521 0.7012625 0.52420825 -0.19216622 -0.1617045 -0.18625362 0.20811434 -0.14451277 0.24000221 0.12877187 0.1318272 0.42843014 0.12721556 0.26495835 0.16885072 0.08949299 -0.0991301 0.5026805 0.009492803 -0.08862072 0.29983267 -0.29763398 0.29477364 0.0060598115 -0.1725132 0.46042415 0.064182125 -0.005219623 -0.22589391 -0.17334853 -0.37915525 -0.21276027 -0.07462582 0.049058862 -0.15292884 0.06268326 -0.16611539 -0.3877987 -0.10853578 -0.21754189 0.030201428 -0.27117303 -0.089179784 0.05571454 0.22943579
382 0.15516742 -0.0509949 -0.03299785 -0.15614438 0.1311829 -0.019411057 0.16453794 0.08631208 -0.6209423 0.25721103 -0.32398525 -0.4142994 -0.1422915 0.043407768 0.38619652 0.66211444 0.09592148 0.030809179 0.6134492 0.10855891 0.47602764 0.23585913 -0.09566747 -0.20248066 -0.15413949 0.342462 -0.18792163 -0.1940923 -0.12381338 -0.33892342 0.83304477 -0.31202942 0.019044554 0.00088342646 -0.52770305 -0.027443718 0.22593957 -0.27781463 -0.23665209 -0.25393596 0.063212305 -0.18002735 -0.20546634 -0.0764429 0.22547308 -0.10062748 0.12604703 0.06786497 -0.01777266 0.10984894 0.0588148 0.14854433 -0.11940373 -0.03129199 -0.33794013 0.017833157 -0.09708139 0.021768624 0.024365993 0.19647081 -0.13596544 0.21832022 0.2363554 0.09097699
356 0.42395917 -0.3352364 -0.56348425 0.13771354 -0.42327446 0.14538622 -0.31483355 -0.63110507 -0.33451298 -0.29070997 0.08376283 0.10066459 -0.14533846 -0.501451 -0.2719897 0.37897646 -0.08368253 -0.027855499 -0.014716291 0.33023176 0.3395987 -0.054553445 0.8360043 -0.22489153 0.12626153 0.23353158 -0.58874714 -0.05560576 0.015972715 0.43865466 0.7012705 -0.20986013 -0.2658593 -0.41362214 0.012147041 -0.2215045 -0.5371185 0.48013207 0.14864242 -0.218126 -0.2800439 -0.24804492 0.18992344 -0.15496841 0.33989683 -0.34103754 -0.1465461 -0.78742254 -0.13422993 0.6939221 -0.056209438 -0.077101745 0.76386064 0.987055 0.61629254 -0.2484872 0.86930275 -0.21816665 -0.39396134 0.60628086 -0.3342862 0.20102283 -0.4818259 0.46544385
442 0.042645935 -0.13462634 0.68961614 0.07405449 0.26953897 0.1858219 -0.16686408 -0.3992982 -0.2596775 0.048320036 0.16164374 -0.3742357 -0.25005367 -0.16897272 -0.4583168 0.15471946 -0.011562667 0.10084505 0.3021312 0.11598722 0.05621464 0.33973145 -0.29219675 -0.02773004 0.102643654 0.17271037 0.074088976 -0.2252054 0.067526385 0.16740584 0.035019886 -0.2101393 -0.061303917 -0.037858453 -0.012741151 -0.07695707 0.3419851 0.118223265 -0.18272415 -0.021837572 0.120679766 0.022247579 -0.24523635 -0.24022397 0.30579567 0.20554323 0.29189125 0.016750662 0.11849294 -0.2924319 0.30464378 0.025887748 0.060452063 0.48151883 -0.18141006 0.065877795 0.4073582 -0.051345814 0.046872765 0.003235983 0.08967304 -0.14687903 -0.20430472 -0.11012223
380 -0.5524728 0.12521367 0.5475683 -0.10389077 -0.23405826 0.07063268 0.2538693 0.23992491 -0.0956594 -0.5954926 0.31864053 -0.39438716 -0.98023695 0.055419605 -0.25406092 0.041619454 -0.32037768 0.17964631 0.47037184 0.3695913 0.04754976 0.52440625 0.07453969 -0.042872246 0.32756138 -0.050689608 0.34228578 -0.03644433 0.2943998 -0.26534048 -0.10895241 -0.04597696 0.13200912 -0.060339402 0.061732 0.14237778 0.38452554 -0.23636068 -0.22337851 -0.094810516 0.4257376 0.10086464 -0.067035444 -0.32296708 0.3348387 0.24498728 0.1704747 -0.37776524 -0.08159978 0.132426 -0.10681074 0.22603588 0.12411001 0.53602004 0.24074844 0.21506773 0.012361277 0.2136215 -0.22091599 0.26974636 0.13603218 -0.197949 -0.010314611 -0.41560754
405 0.35123843 0.40266654 0.37081027 0.021292293 0.12857173 -0.21471766 -0.10926461 -0.018316014 -0.82815105 0.24939539 -0.0994049 -0.3029551 -0.044685636 -0.015808685 -0.11266219 0.35394245 -0.23897696 -0.10767634 0.035192713 0.10047814 0.19633047 0.41685596 0.13041261 -0.49162477 0.06055442 -0.032630604 -0.10955141 -0.48884746 -0.0788553 -0.12599432 -0.13223386 -0.26294446 -0.3542347 0.31934994 -0.47702137 -0.070947856 0.40181425 -0.2947227 0.09380495 0.5330097 0.0722355 -0.4403318 -0.25415343 0.18101524 -0.3572211 0.06548815 0.17277637 -0.27259022 -0.40703854 0.28001687 -0.059236553 -0.17794846 0.29314142 0.012551539 0.094682425 -0.037613872 -0.17598279 0.42026615 0.010059563 -0.19212127 -0.13007736 0.1668325 -0.2861311 0.26556993
459 -0.5711552 0.11889926 0.33076745 -0.020964177 0.071304016 0.096811056 0.14605139 0.21443865 -0.19330591 -0.8949443 0.14248869 -0.5078079 -0.8833665 0.13372776 -0.12979889 0.022429377 -0.14822486 0.13795131 0.33356553 0.45418146 0.03030242 0.5526946 0.19228949 -0.25041616 0.25780156 0.06756961 0.16973715 0.0325185 0.4239276 -0.07219909 -0.19509748 0.21383286 0.18847875 -0.23106003 0.27066982 0.16029607 0.40478918 -0.24400565 0.094310306 -0.08359477 0.54735583 -0.15486902 0.29670548 -0.560754 0.2002246 0.36225963 0.08505985 -0.61547166 -0.06460084 0.27683944 -0.17948563 0.28637967 0.1033336 0.35349438 0.13177913 -0.10258737 0.22237462 0.049763534 -0.12882082 0.13448709 0.10846851 -0.30024177 -0.19510347 -0.28105006
478 0.39706358 0.1951842 0.38040987 0.15021695 -0.070415 -0.25014824 -0.17241369 0.3864952 -0.5358998 0.4983914 0.18648219 -0.035403613 0.07809055 0.11956534 -0.14827351 0.17041627 0.070009805 -0.14411764 0.1946214 0.1952005 0.15465254 0.41478202 0.49618435 -0.8270626 0.205683 0.1372285 0.02900912 -0.3267892 0.20281096 -0.29314482 -0.2300132 -0.1232391 -0.38882867 -0.030885873 -0.2112086 0.12621166 -0.0999416 0.22259279 -0.578646 -0.0846143 -0.12244228 -0.43018398 -0.27037403 -0.1919218 -0.30717075 -0.20555857 -0.0014774742 -0.50763583 -0.16536988 -0.022406206 -0.04132292 -0.32957134 0.3894022 -0.02563777 0.46147525 0.5683862 0.11439992 -0.05293291 -0.15337215 -0.038605947 0.024786497 0.053034224 -0.062244833 0.3051036
449 0.07760901 -0.83084565 0.26590475 -0.20427896 -0.16588539 -0.27686527 0.19836763 0.22975366 -0.1355827 -0.20916975 0.46347106 0.04923775 -0.3596491 -0.101025514 0.08738414 0.2131959 -0.34754363 -0.36934546 0.11948737 0.09002077 0.17618096 0.316863 0.08081394 -0.3934465 0.3210566 0.1257277 -0.11912898 0.25703606 0.031255487 0.19088052 0.5562623 0.49424508 -0.15082958 0.34009254 -0.27741054 -0.27042446 0.3281537 -0.024046522 0.25393105 -0.06604197 0.6886554 -0.11328492 0.39171156 -0.18037283 0.44131088 0.14760812 -0.16654448 0.11856696 -0.35927412 0.05835946 0.34447548 -0.3810378 0.2643334 -0.36863157 -0.15984735 0.19086634 0.36125594 0.14358287 -0.11342619 0.004434134 0.07436854 -0.21488452 -0.052066144 0.029979292
173 0.15817189 -0.33653423 -0.21702094 0.11152908 0.04076283 -0.77980775 0.29003933 -0.7150691 -0.2868035 -0.27400485 0.10901814 -0.24934274 0.0026644273 0.10052834 -0.2651392 0.28550968 0.07674132 0.24776882 0.038371865 0.34590834 -0.21333288 0.8580885 0.19933563 -0.44465908 0.32339594 -0.1875122 0.06439703 -0.09850138 0.5666255 0.40984446 0.16327836 -0.21241882 -0.09063798 0.36171052 -0.28338963 0.2045331 -0.061870303 0.38941413 -0.6594426 -0.14215887 0.392938 0.33348966 0.12986098 -0.028320618 -0.28070384 -0.28681684 -0.3197264 0.17765138 0.06365377 -0.050907392 0.21711992 -0.44848913 -0.12966272 -0.07127405 0.33177567 0.18520291 -0.11745558 0.14629686 -0.12244509 -0.26397023 0.0654978 0.42461672 -0.36937922 -0.063490696
385 0.33247456 0.031481754 0.13946517 0.23909813 0.14353561 -0.17079045 0.035306353 0.023711834 -0.38959792 0.16977507 0.029560288 -0.32956362 -0.28947437 -0.054582328 -0.0180019 0.2439349 -0.013522563 0.42507225 -0.016946176 0.1296694 0.45051238 -0.04340069 0.27786994 -0.21420084 -0.017029466 0.6656862 -0.2057175 0.092357635 0.2940712 -0.3023089 -0.31444016 -0.08440117 -0.25772446 -0.20159264 0.009375055 -0.24062137 0.11383363 0.06519152 0.075193286 -0.12402666 0.09467861 0.52384365 0.018249989 0.09389521 0.21431243 -0.5365841 -0.4408044 0.22034447 0.1854765 0.11149597 0.08840901 -0.29976654 0.23268013 0.19967939 0.37095162 0.36332878 0.33368888 -0.014787294 -0.10667218 0.030217562 -0.028171415 -0.09113578 0.16041377 0.0011074382
435 -0.5079484 -0.02155441 0.38157597 -0.15266693 0.2528873 0.225496 0.09329848 0.08854984 -0.10459766 -0.7553359 0.09350173 -0.36514607 -0.90189785 -0.14747061 -0.40493447 0.32001066 -0.10196625 0.16555831 0.48662382 0.48824528 0.078300625 0.43142045 0.19572279 -0.10124225 0.20085998 0.12361403 0.39470828 0.08888384 0.22646092 -0.32063434 -0.2114753 0.258755 0.06470472 0.056099698 0.04837441 0.37833443 0.08975386 -0.33000067 -0.19934316 -0.036547553 0.58812195 0.051562916 0.11342722 -0.5336645 0.16330804 0.3112623 0.3446342 -0.4756807 -0.10060899 0.11577594 -0.21332645 0.28603604 0.30618566 0.57336295 -0.02049963 0.18909177 0.2134278 0.17655137 -0.25897646 -0.024200527 0.14805876 0.032753658 0.070521176 -0.2768378
472 0.5849607 -0.22206509 -0.3865019 0.10463253 -0.15764272 0.07959462 -0.27071056 -0.3697698 -0.1614515 -0.32403424 0.007964851 0.085946366 -0.09932274 -0.49219516 -0.26234928 0.25088894 -0.117823415 -0.01314565 0.013000773 0.29943842 0.24532153 -0.06529327 0.72211206 -0.21735185 0.0348401 0.08587855 -0.53712136 -0.072587624 0.016941242 0.35026354 0.44523054 -0.21560231 -0.1597392 -0.24356616 -0.1769666 -0.15010948 -0.47709617 0.36092666 0.06905345 -0.19273768 -0.23074323 -0.13079044 0.074246325 -0.118723005 0.3754124 -0.1869289 -0.22978796 -0.54529375 -0.3108783 0.5494756 0.12914385 -0.014626466 0.70766807 0.78101486 0.4962924 -0.3266062 0.82682335 -0.31310686 -0.29087108 0.396261 -0.24217544 0.17027272 -0.31989625 0.5042554
433 -0.069023535 0.18021335 0.43809843 0.28200048 -0.052480422 0.23279868 0.29704365 -0.20099835 -0.08203819 -0.12975104 -0.059481423 -0.013513729 -0.6327132 -0.15562087 0.16387093 0.35578045 -0.5028055 -0.11131028 0.4426758 0.4054489 0.34983563 0.549513 0.21665135 -0.055590592 -0.04939756 0.028052181 0.33909246 0.104802914 0.7196423 -0.104533084 0.1397697 0.06569543 0.5643635 0.40042672 -0.1145377 0.28323853 0.18132079 -0.06117178 -0.4264724 0.13461939 0.18306187 0.12893298 0.17243688 -0.1837733 -0.057912108 0.42568296 -0.0001142966 -0.084366575 -0.18783285 -0.34038395 -0.08073072 0.13451348 0.21381706 0.499068 0.3255381 0.252673 0.29861662 -0.118861355 -0.07917565 0.06443541 -0.12416775 -0.05449166 0.17524925 0.08029702
429 0.17399724 -0.03424474 0.43116242 0.09306709 0.28230333 0.04232231 0.0800808 -0.4144958 -0.42888385 -0.26524344 0.040427957 -0.018945443 0.05401815 -0.40499905 0.38935217 0.42907065 0.11152189 -0.113631174 0.4113079 -0.08921834 0.7143588 0.97864705 0.28209355 0.0744426 -0.28653106 0.12639795 -0.0768018 -0.07280214 0.24099223 -0.1826153 0.045247965 0.38637063 0.6440672 0.13633382 0.10629669 0.0459977 0.2840124 -0.2763762 -0.21197861 0.3360856 0.098324865 0.1912931 0.1493404 -0.27003476 0.2861438 0.091733895 -0.16709386 -0.025582127 -0.16046038 -0.22256401 -0.038916763 0.022623433 0.5432194 -0.12705609 0.036685787 0.2203121 -0.14650404 -0.15184386 0.3497369 0.29071578 -0.2974244 -0.05365709 0.25237882 0.18446437
454 -0.62702954 -0.77766347 -0.31939396 -0.19066754 -0.7878875 -0.984383 0.32080182 -0.718319 -0.7790536 -0.44843632 0.29100332 -0.050599243 -0.28322464 -0.80193233 -0.07965663 0.37326953 0.15492667 -1.044019 0.124536194 0.4561014 0.44482404 0.57876 0.6940341 -0.14376658 0.4516477 0.4260612 -0.15244436 -0.023138186 0.030516904 -0.7267928 0.24163371 -0.38530055 -0.021941377 0.47779268 -0.84270394 0.46769923 -0.4813746 0.3149368 0.41640615 0.14508256 -0.25155982 -0.6262988 0.49846813 -0.11162763 0.09891344 -0.1276986 1.1104187 -0.6960588 0.91767615 0.461358 -0.7387112 -0.2855252 -0.06766789 1.0259699 0.33227667 -0.14452001 -0.25344455 -0.51987 -0.073480345 0.5066672 0.10406859 -0.3113553 0.28810763 -0.7909783
464 0.09483792 -0.33443904 -0.09200008 0.028238948 0.08482451 -0.47726616 0.26628608 -0.70422626 -0.13667585 -0.19037779 0.23075712 -0.12245299 -0.37734342 -0.14405735 -0.114198186 0.3791446 -0.47935143 0.3099566 0.23713428 0.5084884 -0.19972298 0.96986675 0.16081028 -0.3023686 0.1064702 -0.11632261 0.17300141 -0.10940727 0.52540797 0.14877531 0.2072262 -0.06812463 0.09275035 0.72082555 -0.24456222 0.35224423 -0.07886196 0.49254113 -0.53443754 -0.17832145 0.22835144 0.23141381 0.47799385 -0.2717298 -0.518097 -0.25714925 -0.37537986 0.14722015 0.18912257 -0.028980315 0.021243485 -0.22939287 -0.04881614 0.09558683 0.31555077 0.11465856 -0.0743843 0.19557789 -0.18924339 -0.10850988 -0.038695246 1.0023689 -0.2779519 -0.22152346
383 -0.12412143 -0.14498088 0.49459803 0.35595757 0.10811943 -0.5672236 0.56898 -0.40444624 -0.44572324 -0.44799674 0.21571733 0.2462161 0.07631895 -0.13526386 -0.24705562 0.7895144 -0.16842398 -0.49637964 0.32620552 -0.14602914 0.12016996 -0.35925817 -0.26498124 -0.45103776 -0.28002557 0.7671152 -0.6115347 -0.5314028 0.038814817 0.117923446 0.06951295 -0.3015952 -0.22755584 -0.031965688 0.07941881 0.5235106 -0.23639517 -0.26368707 0.01984052 0.2735154 -0.034957107 -0.14303547 0.20684296 0.30866987 0.074554 0.13132633 -0.29841387 0.090075605 0.4934957 -0.096864656 0.4375292 -0.25845554 0.62148684 -0.15648618 0.17983513 0.111142464 0.3705472 -0.24258578 -0.40648705 -0.47114542 0.638469 -0.26358768 -0.097823925 -0.34767285
411 0.5237673 -0.19182163 -0.55233175 0.14197741 -0.46824318 0.19726928 -0.29937112 -0.72831255 -0.44722882 -0.40488097 0.11192372 0.048215866 -0.21379761 -0.61055493 -0.37941042 0.53403604 -0.006774294 -0.06552569 -0.24305701 0.24823967 0.38232046 0.08295506 1.0452641 -0.17378052 0.17915699 0.28923517 -0.7439942 0.046458848 -0.21935236 0.34455717 0.6112787 -0.20741549 -0.37553078 -0.39810714 -0.090541966 -0.059482448 -0.685018 0.42236918 -0.019617919 -0.26943976 -0.21954682 -0.3341531 0.17800784 -0.25819573 0.44540465 -0.48390183 -0.104761295 -0.84047043 -0.2009151 0.57511556 0.00839686 -0.041703224 0.6721054 0.97616976 0.67038804 -0.35735244 0.9007353 -0.41331413 -0.30986407 0.5100287 -0.35602894 0.16169332 -0.42878774 0.56240976
390 0.32760242 -0.45574936 0.2307635 -0.12733664 0.20923021 -0.23652571 -0.12207026 -0.13262263 -0.49246913 -0.13806728 -0.21623276 -0.3289901 0.07417963 0.31917337 -0.09154897 0.31724507 -0.06772177 -0.008880989 -0.08002198 0.093544014 0.3229501 0.2139666 -0.02391085 -0.1856729 -0.52093 -0.22499229 -0.052498654 -0.350438 0.096013024 0.020233883 -0.11006367 -0.31666526 -0.07612496 -0.159649 -0.40657997 -0.1815935 0.2519013 -0.05000372 -0.26465592 0.009094794 0.069295496 0.01886766 0.29553097 -0.270171 -0.18139878 0.22079922 0.010015742 -0.17781788 0.30273554 0.17984815 0.29952055 0.15090959 0.1878912 -0.1083343 0.13192244 -0.025103653 0.5481899 -0.35085857 -0.024266688 0.079840556 -0.23270975 -0.17831044 0.14973041 -0.20104298
443 -0.0937281 -0.98919874 -0.35263872 0.58285207 0.34071168 -0.4336642 0.23092605 -0.13887292 -0.023769218 -0.20673914 0.20994107 -1.0601603 0.32100782 -0.5963389 0.64332265 0.47295246 0.0493935 0.10423638 0.12130428 0.4903617 0.36242446 0.049399067 -0.056354433 0.41620114 0.9601241 0.56533366 -0.7437177 -0.73905283 0.24603342 0.11007985 -0.16090329 -0.045840602 -0.021712905 0.3079614 -0.6241762 -0.30309492 -0.034297477 -0.19985513 -0.38323343 -0.1752993 -0.36426216 -0.15274808 0.2646313 0.4861999 0.21375284 0.02023246 0.31826833 -0.28577197 -0.20049423 -0.02894116 -0.2830004 -0.40517247 0.89774877 -0.058570366 0.021064721 -0.3614794 -0.32615784 -0.30890444 -0.14004122 0.25074068 0.43993604 -0.41880098 -0.29535174 -0.502486
